{"learner":{"attributes":{},"feature_names":["like_count","comment_count","days_since_upload","year","month","day","0","1","2","3","4","5","6","7","8","9","10","11","12","13","14","15","16","17","18","19","20","21","22","23","24","25","26","27","28","29","30","31","32","33","34","35","36","37","38","39","40","41","42","43","44","45","46","47","48","49","50","51","52","53","54","55","56","57","58","59","60","61","62","63","64","65","66","67","68","69","70","71","72","73","74","75","76","77","78","79","80","81","82","83","84","85","86","87","88","89","90","91","92","93","94","95","96","97","98","99"],"feature_types":["float","float","float","int","int","int","float","float","float","float","float","float","float","float","float","float","float","float","float","float","float","float","float","float","float","float","float","float","float","float","float","float","float","float","float","float","float","float","float","float","float","float","float","float","float","float","float","float","float","float","float","float","float","float","float","float","float","float","float","float","float","float","float","float","float","float","float","float","float","float","float","float","float","float","float","float","float","float","float","float","float","float","float","float","float","float","float","float","float","float","float","float","float","float","float","float","float","float","float","float","float","float","float","float","float","float"],"gradient_booster":{"model":{"gbtree_model_param":{"num_parallel_tree":"1","num_trees":"100"},"iteration_indptr":[0,1,2,3,4,5,6,7,8,9,10,11,12,13,14,15,16,17,18,19,20,21,22,23,24,25,26,27,28,29,30,31,32,33,34,35,36,37,38,39,40,41,42,43,44,45,46,47,48,49,50,51,52,53,54,55,56,57,58,59,60,61,62,63,64,65,66,67,68,69,70,71,72,73,74,75,76,77,78,79,80,81,82,83,84,85,86,87,88,89,90,91,92,93,94,95,96,97,98,99,100],"tree_info":[0,0,0,0,0,0,0,0,0,0,0,0,0,0,0,0,0,0,0,0,0,0,0,0,0,0,0,0,0,0,0,0,0,0,0,0,0,0,0,0,0,0,0,0,0,0,0,0,0,0,0,0,0,0,0,0,0,0,0,0,0,0,0,0,0,0,0,0,0,0,0,0,0,0,0,0,0,0,0,0,0,0,0,0,0,0,0,0,0,0,0,0,0,0,0,0,0,0,0,0],"trees":[{"base_weights":[1.0889877E-7,-1.7877692E0,1.5509355E0,-2.8548281E0,-1.0451269E0,8.239794E-1,2.8271987E0,-3.546286E0,-2.4632185E0,-1.5292535E0,-5.805225E-1,3.934213E-1,1.2948153E0,2.3303652E0,4.094883E0,-3.6930563E0,-6.146074E-1,-2.759688E0,-2.2090254E0,-1.6254189E0,-8.9594245E-1,-7.1516144E-1,2.0135272E-2,2.0949373E-1,7.5680816E-1,1.0780841E0,1.5810361E0,2.1165845E0,2.7513814E0,3.6145074E0,4.7105093E0,-4.088291E0,-3.3553534E0,-7.5296885E-1,5.767553E-1,-3.1060882E0,-2.55027E0,-2.2473772E0,-8.3118874E-1,-1.8645593E0,-1.4002364E0,-1.179344E0,-5.989852E-1,1.02305144E-1,-7.7275044E-1,-1.448261E-1,5.687113E-1,8.312959E-2,6.7939335E-1,1.1231742E0,6.223606E-1,9.008578E-1,1.4759904E0,1.9594351E0,1.4579443E0,1.9308242E0,2.3727982E0,2.3132994E0,2.9751712E-1,3.7561283E-1,3.1518993E-1,4.3579277E-1,5.016404E-1,-4.2274895E-1,-2.6447526E-1,-1.10566474E-1,-3.4050354E-1,-1.1437855E-1,-5.3101003E-2,2.3762448E-2,7.9707384E-2,2.3549302E-2,-3.141031E-1,-2.6227406E-1,-1.5206361E-1,-2.8339234E-1,-2.1597897E-1,-1.1748435E-1,-4.74454E-2,-1.4082162E-1,-1.944656E-1,-7.3351644E-2,-1.4438342E-1,-1.2697326E-1,-6.1088037E-2,-1.5254925E-2,-7.666346E-2,2.258767E-2,-6.259571E-2,-9.7355396E-2,-5.948783E-2,-3.2263875E-2,1.3923432E-2,6.319503E-2,-2.280117E-2,-1.5596956E-2,3.8913596E-2,4.7560822E-2,1.0109123E-1,1.160795E-1,5.7812642E-2,4.5129534E-2,1.2688754E-1,8.201087E-2,1.3240515E-1,1.1209879E-1,1.5418307E-1,1.9853176E-1,7.3930666E-2,1.3393335E-1,1.9452168E-1,1.8587331E-1,2.3499429E-1,2.149502E-1,2.5282514E-1,2.147572E-1,2.5416273E-1],"categories":[],"categories_nodes":[],"categories_segments":[],"categories_sizes":[],"default_left":[0,0,0,0,0,0,0,0,0,0,0,0,0,0,0,0,0,0,0,0,0,0,0,0,0,0,0,0,0,0,0,0,0,0,0,0,0,0,0,0,0,0,0,0,0,0,0,0,0,0,0,0,0,0,0,0,0,0,0,0,0,0,0,0,0,0,0,0,0,0,0,0,0,0,0,0,0,0,0,0,0,0,0,0,0,0,0,0,0,0,0,0,0,0,0,0,0,0,0,0,0,0,0,0,0,0,0,0,0,0,0,0,0,0,0,0,0],"id":0,"left_children":[1,3,5,7,9,11,13,15,17,19,21,23,25,27,29,31,33,35,37,39,41,43,45,47,49,51,53,55,57,59,61,63,65,67,69,71,73,75,77,79,81,83,85,87,89,91,93,95,97,99,101,103,105,107,109,111,113,115,-1,-1,-1,-1,-1,-1,-1,-1,-1,-1,-1,-1,-1,-1,-1,-1,-1,-1,-1,-1,-1,-1,-1,-1,-1,-1,-1,-1,-1,-1,-1,-1,-1,-1,-1,-1,-1,-1,-1,-1,-1,-1,-1,-1,-1,-1,-1,-1,-1,-1,-1,-1,-1,-1,-1,-1,-1,-1,-1],"loss_changes":[2.6931379E4,3.5725186E3,4.8230938E3,4.9248145E2,5.9786914E2,6.7151465E2,1.1789414E3,2.847295E2,8.3206055E1,7.789966E1,1.10000275E2,1.1566971E2,9.649365E1,1.1640332E2,1.3971191E2,7.103711E1,5.873955E0,3.146875E1,3.2109863E1,5.823999E1,1.3937103E1,5.2381714E1,2.270583E1,6.83475E1,2.7968567E1,6.241992E1,2.8816162E1,3.84917E1,3.762671E1,7.946533E0,2.836914E0,4.6689453E1,3.513037E1,1.9949951E0,1.0946286E-1,2.4092651E1,2.168042E1,2.5988281E1,1.7718687E0,1.7182129E1,1.5974487E1,3.746025E0,6.3945427E0,6.800833E0,3.6495483E1,9.793263E0,3.0663586E0,6.656846E1,1.6003517E1,2.5072021E0,4.6762543E1,2.0374481E1,4.7460938E0,3.7113647E0,2.7275146E1,1.1645874E1,7.6171875E0,5.2038574E-1,0E0,0E0,0E0,0E0,0E0,0E0,0E0,0E0,0E0,0E0,0E0,0E0,0E0,0E0,0E0,0E0,0E0,0E0,0E0,0E0,0E0,0E0,0E0,0E0,0E0,0E0,0E0,0E0,0E0,0E0,0E0,0E0,0E0,0E0,0E0,0E0,0E0,0E0,0E0,0E0,0E0,0E0,0E0,0E0,0E0,0E0,0E0,0E0,0E0,0E0,0E0,0E0,0E0,0E0,0E0,0E0,0E0,0E0,0E0],"parents":[2147483647,0,0,1,1,2,2,3,3,4,4,5,5,6,6,7,7,8,8,9,9,10,10,11,11,12,12,13,13,14,14,15,15,16,16,17,17,18,18,19,19,20,20,21,21,22,22,23,23,24,24,25,25,26,26,27,27,28,28,29,29,30,30,31,31,32,32,33,33,34,34,35,35,36,36,37,37,38,38,39,39,40,40,41,41,42,42,43,43,44,44,45,45,46,46,47,47,48,48,49,49,50,50,51,51,52,52,53,53,54,54,55,55,56,56,57,57],"right_children":[2,4,6,8,10,12,14,16,18,20,22,24,26,28,30,32,34,36,38,40,42,44,46,48,50,52,54,56,58,60,62,64,66,68,70,72,74,76,78,80,82,84,86,88,90,92,94,96,98,100,102,104,106,108,110,112,114,116,-1,-1,-1,-1,-1,-1,-1,-1,-1,-1,-1,-1,-1,-1,-1,-1,-1,-1,-1,-1,-1,-1,-1,-1,-1,-1,-1,-1,-1,-1,-1,-1,-1,-1,-1,-1,-1,-1,-1,-1,-1,-1,-1,-1,-1,-1,-1,-1,-1,-1,-1,-1,-1,-1,-1,-1,-1,-1,-1],"split_conditions":[6.0282784E0,3.9702919E0,7.9827576E0,2.6390574E0,5.081404E0,6.989335E0,9.499122E0,2.1972246E0,3.3322046E0,7.7480288E0,7.6530204E0,3.507492E-1,7.505492E0,8.826588E0,1.0352108E1,1.9459101E0,3.9318256E0,6.765039E0,8.020927E0,4.5108595E0,4.574711E0,-3.3362716E-1,8.091627E0,7.548029E0,-1.2711248E-1,4.4605795E-1,-1.789717E-1,5.4006034E-1,6.001791E-1,-5.3893536E-1,1.0931892E1,-7.103681E-2,-1.7918581E-1,2.7725887E0,4.248495E0,-4.1179675E-1,-1.8376376E-2,6.1862087E0,1.1898603E-1,-5.3855296E-2,-8.3644584E-2,8.15335E0,-1.8638603E-2,-2.990962E-1,5.525453E0,2.3206978E-1,-2.0801719E-1,6.5834093E0,2.6101114E-2,3.713572E0,7.795235E0,7.7574787E0,4.9126157E-1,-2.4452342E-1,7.7574787E0,7.704361E0,8.306225E0,9.185637E0,2.9751712E-1,3.7561283E-1,3.1518993E-1,4.3579277E-1,5.016404E-1,-4.2274895E-1,-2.6447526E-1,-1.10566474E-1,-3.4050354E-1,-1.1437855E-1,-5.3101003E-2,2.3762448E-2,7.9707384E-2,2.3549302E-2,-3.141031E-1,-2.6227406E-1,-1.5206361E-1,-2.8339234E-1,-2.1597897E-1,-1.1748435E-1,-4.74454E-2,-1.4082162E-1,-1.944656E-1,-7.3351644E-2,-1.4438342E-1,-1.2697326E-1,-6.1088037E-2,-1.5254925E-2,-7.666346E-2,2.258767E-2,-6.259571E-2,-9.7355396E-2,-5.948783E-2,-3.2263875E-2,1.3923432E-2,6.319503E-2,-2.280117E-2,-1.5596956E-2,3.8913596E-2,4.7560822E-2,1.0109123E-1,1.160795E-1,5.7812642E-2,4.5129534E-2,1.2688754E-1,8.201087E-2,1.3240515E-1,1.1209879E-1,1.5418307E-1,1.9853176E-1,7.3930666E-2,1.3393335E-1,1.9452168E-1,1.8587331E-1,2.3499429E-1,2.149502E-1,2.5282514E-1,2.147572E-1,2.5416273E-1],"split_indices":[0,0,0,0,0,0,0,1,0,2,2,37,0,0,0,0,1,2,2,0,0,105,2,2,64,37,52,92,102,14,0,63,16,1,1,58,47,2,21,91,91,2,16,88,0,12,8,0,46,1,2,2,68,15,2,2,0,0,0,0,0,0,0,0,0,0,0,0,0,0,0,0,0,0,0,0,0,0,0,0,0,0,0,0,0,0,0,0,0,0,0,0,0,0,0,0,0,0,0,0,0,0,0,0,0,0,0,0,0,0,0,0,0,0,0,0,0],"split_type":[0,0,0,0,0,0,0,0,0,0,0,0,0,0,0,0,0,0,0,0,0,0,0,0,0,0,0,0,0,0,0,0,0,0,0,0,0,0,0,0,0,0,0,0,0,0,0,0,0,0,0,0,0,0,0,0,0,0,0,0,0,0,0,0,0,0,0,0,0,0,0,0,0,0,0,0,0,0,0,0,0,0,0,0,0,0,0,0,0,0,0,0,0,0,0,0,0,0,0,0,0,0,0,0,0,0,0,0,0,0,0,0,0,0,0,0,0],"sum_hessian":[9.711E3,4.511E3,5.2E3,1.85E3,2.661E3,3.314E3,1.886E3,6.66E2,1.184E3,1.302E3,1.359E3,1.732E3,1.582E3,1.357E3,5.29E2,6.34E2,3.2E1,5.42E2,6.42E2,1.129E3,1.73E2,1.11E3,2.49E2,1.151E3,5.81E2,9.03E2,6.79E2,9.04E2,4.53E2,3.01E2,2.28E2,2.87E2,3.47E2,2.9E1,3E0,1.99E2,3.43E2,6.24E2,1.8E1,5.44E2,5.85E2,8.7E1,8.6E1,7.3E1,1.037E3,1.92E2,5.7E1,9.08E2,2.43E2,1.54E2,4.27E2,6.27E2,2.76E2,1.63E2,5.16E2,5.29E2,3.75E2,1.57E2,2.96E2,2.25E2,7.6E1,1.13E2,1.15E2,2.6E2,2.7E1,8E0,3.39E2,9E0,2E1,2E0,1E0,2E0,1.97E2,3.19E2,2.4E1,7.7E1,5.47E2,8E0,1E1,8.4E1,4.6E2,3.7E1,5.48E2,7.4E1,1.3E1,2.4E1,6.2E1,6.3E1,1E1,4.85E2,5.52E2,1.18E2,7.4E1,5.3E1,4E0,5.1E2,3.98E2,1.52E2,9.1E1,1.43E2,1.1E1,3.39E2,8.8E1,5.29E2,9.8E1,4.6E1,2.3E2,1.59E2,4E0,4.18E2,9.8E1,4.56E2,7.3E1,1.6E2,2.15E2,9.7E1,6E1],"tree_param":{"num_deleted":"0","num_feature":"106","num_nodes":"117","size_leaf_vector":"1"}},{"base_weights":[1.3432275E-4,-1.6097856E0,1.3967807E0,-2.6180947E0,-9.711667E-1,7.622154E-1,2.5831935E0,-3.228697E0,-2.2782338E0,-1.4046768E0,-5.2259845E-1,3.3477423E-1,1.1692735E0,2.1245983E0,3.6884663E0,-3.3830051E0,-6.933598E-1,-2.599682E0,-2.1046047E0,-1.504762E0,-8.6743224E-1,-6.438221E-1,1.82098E-2,2.422423E-1,9.217894E-1,9.638454E-1,1.4598836E0,1.940596E0,2.5034187E0,3.2553437E0,4.2435517E0,-3.7941391E0,-3.113223E0,-1.267493E0,-3.2955876E-1,-2.763843E0,-2.2282374E0,-2.4362242E0,-1.9512736E0,-1.7129585E0,-1.2763222E0,-1.1160891E0,-5.668991E-1,-7.128829E-1,-6.7554004E-2,-1.3043867E-1,5.1253647E-1,8.2015723E-1,1.3544555E-1,2.6779222E-1,1.0288366E0,8.1321657E-1,1.3014854E0,1.8024718E0,1.3408334E0,1.7573256E0,2.1757333E0,2.2022827E0,2.7800777E0,2.9203025E-1,3.4268087E-1,3.9259577E-1,4.519088E-1,-3.8949773E-1,-2.1025746E-1,-1.06734276E-1,-3.156688E-1,-9.507605E-2,-1.8216346E-1,-4.8043806E-2,5.4494716E-2,-3.8699962E-2,-2.7893868E-1,-2.2649744E-1,-8.93551E-2,-2.740614E-1,-2.0937756E-1,1.1143211E-1,-1.9655646E-1,-1.2844905E-1,-1.7954862E-1,-1.3322207E-1,-7.986314E-2,-1.2134383E-1,-5.2961238E-2,-7.690026E-2,-2.2936115E-2,-9.745951E-2,-6.096188E-2,-6.1021287E-2,2.1140309E-2,-3.694877E-2,5.7172407E-3,-1.4138963E-3,5.9708726E-2,9.56089E-2,3.3071168E-2,-6.741849E-3,3.6602683E-2,7.435074E-2,-1.6994296E-2,4.3024596E-2,1.0732502E-1,7.45704E-2,1.1938298E-1,1.1434499E-1,1.427695E-1,1.8255194E-1,6.2148113E-2,1.22877E-1,1.7735592E-1,1.6538063E-1,1.99913E-1,1.9542478E-1,2.2834961E-1,1.8475805E-1,2.3338678E-1,1.1184384E-1,2.790527E-1],"categories":[],"categories_nodes":[],"categories_segments":[],"categories_sizes":[],"default_left":[0,0,0,0,0,0,0,0,0,0,0,0,0,0,0,0,0,0,0,0,0,0,0,0,0,0,0,0,0,0,0,0,0,0,0,0,0,0,0,0,0,0,0,0,0,0,0,0,0,0,0,0,0,0,0,0,0,0,0,0,0,0,0,0,0,0,0,0,0,0,0,0,0,0,0,0,0,0,0,0,0,0,0,0,0,0,0,0,0,0,0,0,0,0,0,0,0,0,0,0,0,0,0,0,0,0,0,0,0,0,0,0,0,0,0,0,0,0,0],"id":1,"left_children":[1,3,5,7,9,11,13,15,17,19,21,23,25,27,29,31,33,35,37,39,41,43,45,47,49,51,53,55,57,59,61,63,65,67,69,71,73,75,77,79,81,83,85,87,89,91,93,95,97,99,101,103,105,107,109,111,113,115,117,-1,-1,-1,-1,-1,-1,-1,-1,-1,-1,-1,-1,-1,-1,-1,-1,-1,-1,-1,-1,-1,-1,-1,-1,-1,-1,-1,-1,-1,-1,-1,-1,-1,-1,-1,-1,-1,-1,-1,-1,-1,-1,-1,-1,-1,-1,-1,-1,-1,-1,-1,-1,-1,-1,-1,-1,-1,-1,-1,-1],"loss_changes":[2.1839572E4,2.9028486E3,3.9136377E3,3.555957E2,5.3675024E2,5.8944617E2,9.106172E2,2.4138623E2,5.7430176E1,7.42417E1,8.917157E1,8.967239E1,1.022312E2,8.4572266E1,1.1360791E2,5.32959E1,7.310486E0,1.7683105E1,3.2720947E1,5.4077637E1,1.6032013E1,4.416696E1,1.8437078E1,8.820942E1,1.547641E1,5.0817078E1,2.6826172E1,3.3581787E1,2.8535156E1,7.342041E0,2.2978516E0,3.0701416E1,2.864331E1,7.252674E-1,3.4284892E0,1.51311035E1,4.1052246E0,1.8132202E1,2.4489624E1,1.9475708E1,1.4102966E1,6.2655945E0,6.850033E0,2.6215149E1,1.8294426E1,8.676837E0,2.5912304E0,1.4520264E1,5.6577637E1,6.9981823E0,4.669235E0,1.7302673E1,4.6104736E0,3.819397E0,2.3812866E1,9.034302E0,4.511963E0,5.2094727E0,5.773926E-1,0E0,0E0,0E0,0E0,0E0,0E0,0E0,0E0,0E0,0E0,0E0,0E0,0E0,0E0,0E0,0E0,0E0,0E0,0E0,0E0,0E0,0E0,0E0,0E0,0E0,0E0,0E0,0E0,0E0,0E0,0E0,0E0,0E0,0E0,0E0,0E0,0E0,0E0,0E0,0E0,0E0,0E0,0E0,0E0,0E0,0E0,0E0,0E0,0E0,0E0,0E0,0E0,0E0,0E0,0E0,0E0,0E0,0E0,0E0,0E0],"parents":[2147483647,0,0,1,1,2,2,3,3,4,4,5,5,6,6,7,7,8,8,9,9,10,10,11,11,12,12,13,13,14,14,15,15,16,16,17,17,18,18,19,19,20,20,21,21,22,22,23,23,24,24,25,25,26,26,27,27,28,28,29,29,30,30,31,31,32,32,33,33,34,34,35,35,36,36,37,37,38,38,39,39,40,40,41,41,42,42,43,43,44,44,45,45,46,46,47,47,48,48,49,49,50,50,51,51,52,52,53,53,54,54,55,55,56,56,57,57,58,58],"right_children":[2,4,6,8,10,12,14,16,18,20,22,24,26,28,30,32,34,36,38,40,42,44,46,48,50,52,54,56,58,60,62,64,66,68,70,72,74,76,78,80,82,84,86,88,90,92,94,96,98,100,102,104,106,108,110,112,114,116,118,-1,-1,-1,-1,-1,-1,-1,-1,-1,-1,-1,-1,-1,-1,-1,-1,-1,-1,-1,-1,-1,-1,-1,-1,-1,-1,-1,-1,-1,-1,-1,-1,-1,-1,-1,-1,-1,-1,-1,-1,-1,-1,-1,-1,-1,-1,-1,-1,-1,-1,-1,-1,-1,-1,-1,-1,-1,-1,-1,-1],"split_conditions":[6.0282784E0,3.871201E0,8.04655E0,2.5649493E0,5.081404E0,6.9498563E0,9.499122E0,1.9459101E0,6.765039E0,7.704361E0,7.6530204E0,7.794411E0,7.5320883E0,8.878776E0,1.0352108E1,1.7917595E0,2.7725887E0,3.4965076E0,3.0910425E0,4.5108595E0,4.574711E0,1.177472E-1,8.091627E0,-1.6066386E-1,-5.6021508E-2,4.4993258E-1,-1.789717E-1,5.1488006E-1,4.1424048E-1,2.0921886E-1,1.0931892E1,8.020927E0,-1.7918581E-1,-4.925392E-1,3.9318256E0,-4.1179675E-1,8.148595E-1,7.687581E-1,-1.0509417E0,-5.3855296E-2,2.8577507E-2,8.15335E0,3.042984E-1,5.3565865E0,7.665037E-1,1.9032171E-1,2.1597792E-1,-2.0155577E-1,6.5453496E0,-4.5949638E-2,1.7917595E0,7.7574787E0,1.9701898E-1,-1.7583872E-1,7.7574787E0,7.4145727E0,8.306225E0,2.2929126E-1,2.9100642E-2,2.9203025E-1,3.4268087E-1,3.9259577E-1,4.519088E-1,-3.8949773E-1,-2.1025746E-1,-1.06734276E-1,-3.156688E-1,-9.507605E-2,-1.8216346E-1,-4.8043806E-2,5.4494716E-2,-3.8699962E-2,-2.7893868E-1,-2.2649744E-1,-8.93551E-2,-2.740614E-1,-2.0937756E-1,1.1143211E-1,-1.9655646E-1,-1.2844905E-1,-1.7954862E-1,-1.3322207E-1,-7.986314E-2,-1.2134383E-1,-5.2961238E-2,-7.690026E-2,-2.2936115E-2,-9.745951E-2,-6.096188E-2,-6.1021287E-2,2.1140309E-2,-3.694877E-2,5.7172407E-3,-1.4138963E-3,5.9708726E-2,9.56089E-2,3.3071168E-2,-6.741849E-3,3.6602683E-2,7.435074E-2,-1.6994296E-2,4.3024596E-2,1.0732502E-1,7.45704E-2,1.1938298E-1,1.1434499E-1,1.427695E-1,1.8255194E-1,6.2148113E-2,1.22877E-1,1.7735592E-1,1.6538063E-1,1.99913E-1,1.9542478E-1,2.2834961E-1,1.8475805E-1,2.3338678E-1,1.1184384E-1,2.790527E-1],"split_indices":[0,0,0,0,0,0,0,1,2,2,2,2,0,0,0,0,1,0,0,0,0,77,2,52,64,37,52,92,92,37,0,2,16,14,1,58,38,102,86,91,53,2,79,0,102,81,50,34,0,19,1,2,55,105,2,2,0,68,50,0,0,0,0,0,0,0,0,0,0,0,0,0,0,0,0,0,0,0,0,0,0,0,0,0,0,0,0,0,0,0,0,0,0,0,0,0,0,0,0,0,0,0,0,0,0,0,0,0,0,0,0,0,0,0,0,0,0,0,0],"split_type":[0,0,0,0,0,0,0,0,0,0,0,0,0,0,0,0,0,0,0,0,0,0,0,0,0,0,0,0,0,0,0,0,0,0,0,0,0,0,0,0,0,0,0,0,0,0,0,0,0,0,0,0,0,0,0,0,0,0,0,0,0,0,0,0,0,0,0,0,0,0,0,0,0,0,0,0,0,0,0,0,0,0,0,0,0,0,0,0,0,0,0,0,0,0,0,0,0,0,0,0,0,0,0,0,0,0,0,0,0,0,0,0,0,0,0,0,0,0,0],"sum_hessian":[9.711E3,4.511E3,5.2E3,1.748E3,2.763E3,3.389E3,1.811E3,6.22E2,1.126E3,1.404E3,1.359E3,1.654E3,1.735E3,1.282E3,5.29E2,5.86E2,3.6E1,3.9E2,7.36E2,1.182E3,2.22E2,1.11E3,2.49E2,1.43E3,2.24E2,1.019E3,7.16E2,8.67E2,4.15E2,3.01E2,2.28E2,2.27E2,3.59E2,1.3E1,2.3E1,2.66E2,1.24E2,2.28E2,5.08E2,6.15E2,5.67E2,1.2E2,1.02E2,9.91E2,1.19E2,1.92E2,5.7E1,2.22E2,1.208E3,3.2E1,1.92E2,7.07E2,3.12E2,1.81E2,5.35E2,4.92E2,3.75E2,2.03E2,2.12E2,1.08E2,1.93E2,1.13E2,1.15E2,2.13E2,1.4E1,8E0,3.51E2,1E1,3E0,2E1,3E0,3E0,2.63E2,1.2E2,4E0,1.17E2,1.11E2,2E0,5.06E2,1.02E2,5.13E2,5.06E2,6.1E1,1.02E2,1.8E1,6.3E1,3.9E1,2.78E2,7.13E2,4E1,7.9E1,8.4E1,1.08E2,8E0,4.9E1,1.73E2,4.9E1,6.43E2,5.65E2,1.5E1,1.7E1,1.4E1,1.78E2,6.03E2,1.04E2,1.43E2,1.69E2,1.77E2,4E0,4.28E2,1.07E2,3.5E2,1.42E2,1.29E2,2.46E2,5.9E1,1.44E2,2E0,2.1E2],"tree_param":{"num_deleted":"0","num_feature":"106","num_nodes":"119","size_leaf_vector":"1"}},{"base_weights":[2.2148468E-4,-1.4495742E0,1.2579561E0,-2.2137833E0,-7.6528424E-1,6.5832233E-1,2.2780821E0,-2.69903E0,-1.7839729E0,-1.1159298E0,-4.28704E-1,2.7599013E-1,9.9796516E-1,1.8799644E0,3.3224108E0,-2.7553473E0,-2.963338E-1,-2.111213E0,-1.6485897E0,-1.188885E0,-5.592898E-1,-5.319894E-1,1.08773544E-1,1.8759254E-1,8.3009195E-1,7.388375E-1,1.1788841E0,1.683438E0,2.1979048E0,2.9852197E0,3.9052513E-1,-3.0888252E0,-2.4028893E0,-4.3468165E-1,5.04076E-1,-2.3006122E0,-1.8928681E-1,-1.3387308E0,-1.7855071E0,-1.3875283E0,-1.046485E0,-1.9472212E-1,-7.3549443E-1,-5.9391946E-1,-2.4057627E-2,-1.1904254E-1,3.8094425E-1,8.6322457E-1,1.18757546E-1,9.70576E-1,4.114271E-1,1.1170377E0,6.2622833E-1,1.3539982E0,9.7983956E-1,1.778193E0,1.3542998E0,1.8623536E0,2.3940148E0,2.8095987E0,3.3087352E-1,-3.4947512E-1,-2.74147E-1,-2.5665715E-1,-2.0231465E-1,-5.451106E-2,-1.8709589E-2,1.8545277E-2,7.299729E-2,-1.8756117E-1,-2.4039662E-1,2.3725967E-1,-1.3630664E-1,1.040033E-1,-1.7975849E-1,-9.532042E-2,-1.4518616E-1,-1.10917106E-1,-6.0953587E-2,-4.982225E-2,3.7196587E-5,-9.181849E-2,-4.9614422E-2,-6.7798786E-2,-3.603738E-2,-6.995528E-2,1.7809104E-2,2.4185939E-2,-2.1954376E-2,4.230414E-2,-4.193155E-2,4.3472175E-2,9.735994E-2,-2.7741257E-3,3.486734E-2,5.5809747E-2,1.0297289E-1,5.965906E-2,-1.7345095E-2,1.217451E-1,8.85662E-2,5.4715324E-2,1.08123295E-1,1.5096696E-1,1.2234749E-1,9.054499E-2,1.3469182E-1,1.6312726E-1,1.8929088E-1,1.6768774E-1,1.2567027E-1,1.7590332E-1,2.2437778E-1,2.09192E-1,2.4599706E-1,2.4683015E-1,2.943024E-1],"categories":[],"categories_nodes":[],"categories_segments":[],"categories_sizes":[],"default_left":[0,0,0,0,0,0,0,0,0,0,0,0,0,0,0,0,0,0,0,0,0,0,0,0,0,0,0,0,0,0,0,0,0,0,0,0,0,0,0,0,0,0,0,0,0,0,0,0,0,0,0,0,0,0,0,0,0,0,0,0,0,0,0,0,0,0,0,0,0,0,0,0,0,0,0,0,0,0,0,0,0,0,0,0,0,0,0,0,0,0,0,0,0,0,0,0,0,0,0,0,0,0,0,0,0,0,0,0,0,0,0,0,0,0,0,0,0],"id":2,"left_children":[1,3,5,7,9,11,13,15,17,19,21,23,25,27,29,31,33,35,37,39,41,43,45,47,49,51,53,55,57,59,-1,61,63,65,67,69,-1,71,73,75,77,79,81,83,85,87,89,91,93,95,97,99,101,103,105,107,109,111,113,115,-1,-1,-1,-1,-1,-1,-1,-1,-1,-1,-1,-1,-1,-1,-1,-1,-1,-1,-1,-1,-1,-1,-1,-1,-1,-1,-1,-1,-1,-1,-1,-1,-1,-1,-1,-1,-1,-1,-1,-1,-1,-1,-1,-1,-1,-1,-1,-1,-1,-1,-1,-1,-1,-1,-1,-1,-1],"loss_changes":[1.7711252E4,2.3578135E3,3.1799639E3,4.3963477E2,2.8064612E2,4.2526392E2,7.9410254E2,1.3436133E2,4.6714844E1,4.6686035E1,6.7617905E1,7.542237E1,8.046765E1,8.3526855E1,9.250244E1,1.07293945E2,2.8767524E0,9.209473E0,3.18042E1,2.7683472E1,8.657452E0,3.210251E1,1.2260307E1,6.184497E1,1.2069626E1,2.9794037E1,3.4225952E1,2.4631348E1,3.0418213E1,1.002124E1,0E0,6.0637695E1,2.458081E1,4.721651E-1,1.525284E-1,3.0023193E0,0E0,2.5903748E1,2.0843872E1,1.0547058E1,1.5867859E1,2.723897E0,3.567337E0,1.7622437E1,1.5418234E1,3.9703758E0,3.2093668E0,5.39415E0,4.0765373E1,3.2804108E0,6.0598707E0,2.7087708E0,1.934105E1,9.125061E0,1.1915009E1,8.204102E0,4.1262207E0,3.9349365E0,1.4489746E0,3.072754E0,0E0,0E0,0E0,0E0,0E0,0E0,0E0,0E0,0E0,0E0,0E0,0E0,0E0,0E0,0E0,0E0,0E0,0E0,0E0,0E0,0E0,0E0,0E0,0E0,0E0,0E0,0E0,0E0,0E0,0E0,0E0,0E0,0E0,0E0,0E0,0E0,0E0,0E0,0E0,0E0,0E0,0E0,0E0,0E0,0E0,0E0,0E0,0E0,0E0,0E0,0E0,0E0,0E0,0E0,0E0,0E0,0E0],"parents":[2147483647,0,0,1,1,2,2,3,3,4,4,5,5,6,6,7,7,8,8,9,9,10,10,11,11,12,12,13,13,14,14,15,15,16,16,17,17,18,18,19,19,20,20,21,21,22,22,23,23,24,24,25,25,26,26,27,27,28,28,29,29,31,31,32,32,33,33,34,34,35,35,37,37,38,38,39,39,40,40,41,41,42,42,43,43,44,44,45,45,46,46,47,47,48,48,49,49,50,50,51,51,52,52,53,53,54,54,55,55,56,56,57,57,58,58,59,59],"right_children":[2,4,6,8,10,12,14,16,18,20,22,24,26,28,30,32,34,36,38,40,42,44,46,48,50,52,54,56,58,60,-1,62,64,66,68,70,-1,72,74,76,78,80,82,84,86,88,90,92,94,96,98,100,102,104,106,108,110,112,114,116,-1,-1,-1,-1,-1,-1,-1,-1,-1,-1,-1,-1,-1,-1,-1,-1,-1,-1,-1,-1,-1,-1,-1,-1,-1,-1,-1,-1,-1,-1,-1,-1,-1,-1,-1,-1,-1,-1,-1,-1,-1,-1,-1,-1,-1,-1,-1,-1,-1,-1,-1,-1,-1,-1,-1,-1,-1],"split_conditions":[6.0282784E0,4.2195077E0,7.9505024E0,3.0910425E0,5.187386E0,6.8855095E0,9.499122E0,2.7725887E0,6.705639E0,7.787797E0,7.704361E0,7.794411E0,7.2800083E0,8.742255E0,1.0486541E1,2.3978953E0,3.9318256E0,3.6888795E0,-1.4032681E-1,4.634729E0,-1.7310333E-2,1.177472E-1,2.242067E-1,-5.7682496E-1,-5.636034E-1,-5.3168255E-1,-7.633067E-1,-1.7988078E-1,6.485053E-1,1.0084058E1,3.9052513E-1,6.6023245E-2,1.5842837E-1,2.4800822E-1,4.248495E0,-4.5531833E-1,-1.8928681E-1,1.1457248E-1,-1.0509417E0,-5.3855296E-2,5.5333304E-1,9.627752E-2,4.7957907E0,5.8289456E0,6.842569E-1,1.6852315E-1,-1.8277659E-1,-5.3660023E-1,6.5834093E0,7.830028E0,1.8962397E-1,-9.306233E-2,7.799753E0,-1.789717E-1,7.7574787E0,8.27614E0,1.2677814E-1,7.404279E0,6.6541524E0,1.9897419E-1,3.3087352E-1,-3.4947512E-1,-2.74147E-1,-2.5665715E-1,-2.0231465E-1,-5.451106E-2,-1.8709589E-2,1.8545277E-2,7.299729E-2,-1.8756117E-1,-2.4039662E-1,2.3725967E-1,-1.3630664E-1,1.040033E-1,-1.7975849E-1,-9.532042E-2,-1.4518616E-1,-1.10917106E-1,-6.0953587E-2,-4.982225E-2,3.7196587E-5,-9.181849E-2,-4.9614422E-2,-6.7798786E-2,-3.603738E-2,-6.995528E-2,1.7809104E-2,2.4185939E-2,-2.1954376E-2,4.230414E-2,-4.193155E-2,4.3472175E-2,9.735994E-2,-2.7741257E-3,3.486734E-2,5.5809747E-2,1.0297289E-1,5.965906E-2,-1.7345095E-2,1.217451E-1,8.85662E-2,5.4715324E-2,1.08123295E-1,1.5096696E-1,1.2234749E-1,9.054499E-2,1.3469182E-1,1.6312726E-1,1.8929088E-1,1.6768774E-1,1.2567027E-1,1.7590332E-1,2.2437778E-1,2.09192E-1,2.4599706E-1,2.4683015E-1,2.943024E-1],"split_indices":[0,0,0,0,0,0,0,1,2,2,2,2,0,0,0,0,1,0,9,0,91,77,12,90,98,90,14,72,102,0,0,18,24,79,1,90,0,28,86,91,68,26,0,0,102,96,72,27,0,2,95,64,2,52,2,0,67,2,2,12,0,0,0,0,0,0,0,0,0,0,0,0,0,0,0,0,0,0,0,0,0,0,0,0,0,0,0,0,0,0,0,0,0,0,0,0,0,0,0,0,0,0,0,0,0,0,0,0,0,0,0,0,0,0,0,0,0],"split_type":[0,0,0,0,0,0,0,0,0,0,0,0,0,0,0,0,0,0,0,0,0,0,0,0,0,0,0,0,0,0,0,0,0,0,0,0,0,0,0,0,0,0,0,0,0,0,0,0,0,0,0,0,0,0,0,0,0,0,0,0,0,0,0,0,0,0,0,0,0,0,0,0,0,0,0,0,0,0,0,0,0,0,0,0,0,0,0,0,0,0,0,0,0,0,0,0,0,0,0,0,0,0,0,0,0,0,0,0,0,0,0,0,0,0,0,0,0],"sum_hessian":[9.711E3,4.511E3,5.2E3,2.13E3,2.381E3,3.276E3,1.924E3,9.98E2,1.132E3,1.165E3,1.216E3,1.542E3,1.734E3,1.395E3,5.29E2,9.75E2,2.3E1,3.27E2,8.05E2,1.029E3,1.36E2,1.02E3,1.96E2,1.331E3,2.11E2,7.15E2,1.019E3,8.66E2,5.29E2,3.39E2,1.9E2,4.97E2,4.78E2,2E1,3E0,1.7E2,1.57E2,2.5E2,5.55E2,4.26E2,6.03E2,4.5E1,9.1E1,9.09E2,1.11E2,1.07E2,8.9E1,1.22E2,1.209E3,1.57E2,5.4E1,1.62E2,5.53E2,5.39E2,4.8E2,6.69E2,1.97E2,1.99E2,3.3E2,2.26E2,1.13E2,2.25E2,2.72E2,3.3E2,1.48E2,1.3E1,7E0,2E0,1E0,3.7E1,1.33E2,1E0,2.49E2,2E0,5.53E2,5.7E1,3.69E2,5.26E2,7.7E1,1.7E1,2.8E1,5E1,4.1E1,6.67E2,2.42E2,2.5E1,8.6E1,2.3E1,8.4E1,8.5E1,4E0,2.6E1,9.6E1,7.39E2,4.7E2,2.1E1,1.36E2,4.1E1,1.3E1,1.1E2,5.2E1,4.73E2,8E1,2.41E2,2.98E2,4.02E2,7.8E1,3E2,3.69E2,4.2E1,1.55E2,1.61E2,3.8E1,6.5E1,2.65E2,6.9E1,1.57E2],"tree_param":{"num_deleted":"0","num_feature":"106","num_nodes":"117","size_leaf_vector":"1"}},{"base_weights":[3.6371953E-4,-1.3051517E0,1.1329316E0,-2.1564107E0,-8.027521E-1,5.672835E-1,2.0105455E0,-2.651082E0,-1.8958719E0,-1.1928958E0,-4.5906997E-1,2.4863358E-1,8.700638E-1,1.6643071E0,2.992552E0,-2.7930226E0,-5.1170456E-1,-2.1713715E0,-1.7462728E0,-1.2625456E0,-7.138486E-1,-5.59487E-1,-2.1361297E-2,1.2958305E-1,6.014735E-1,6.64866E-1,1.0319002E0,1.4920238E0,1.9797282E0,2.6403475E0,3.4439635E0,-3.1805408E0,-2.5513039E0,-6.1292017E-1,4.7655416E-1,-2.286701E0,-1.8174293E0,-1.7856692E0,-7.832605E-1,-1.3970971E0,-1.0746745E0,-7.855493E-1,-9.889839E-2,-6.2034774E-1,-6.1694045E-2,-1.510541E-1,4.1593233E-1,6.448247E-1,3.815573E-2,2.8066608E-1,7.1451074E-1,4.700938E-1,8.4476143E-1,8.695377E-1,1.2068784E0,1.3405832E0,1.6755974E0,2.1712525E0,1.6934687E0,2.4066374E0,2.8248817E-1,3.169591E-1,3.6839163E-1,-3.3778214E-1,-2.9108775E-1,-1.3079391E-1,-2.6256236E-1,-1.4499316E-1,-4.851471E-2,1.7308934E-2,6.9347434E-2,-1.6548133E-2,-2.3086803E-1,-2.1071093E-1,-1.6334872E-1,-1.8014969E-1,3.163027E-2,-9.3303055E-2,-3.3012718E-2,-1.6724762E-1,-1.2921762E-1,-1.186999E-1,-8.859166E-2,-8.812597E-2,-4.7270842E-2,1.8655078E-2,-2.1416958E-2,-8.557314E-2,-4.935454E-2,-3.4811474E-2,1.2767682E-2,-4.92582E-2,-1.3045749E-3,4.806115E-2,-1.8863952E-2,8.3450034E-2,2.8872514E-2,-9.826335E-3,2.5639752E-2,1.4315794E-2,5.812886E-2,5.5152576E-2,8.840809E-2,4.062552E-2,8.7898865E-2,7.070169E-2,9.7581446E-2,1.049433E-1,7.384586E-2,7.814341E-2,1.2705967E-1,1.256407E-1,1.7045592E-1,1.5465213E-1,1.7959236E-1,1.9649588E-1,2.2759056E-1,1.5450734E-1,1.8747154E-1,2.2069564E-1,2.6360962E-1],"categories":[],"categories_nodes":[],"categories_segments":[],"categories_sizes":[],"default_left":[0,0,0,0,0,0,0,0,0,0,0,0,0,0,0,0,0,0,0,0,0,0,0,0,0,0,0,0,0,0,0,0,0,0,0,0,0,0,0,0,0,0,0,0,0,0,0,0,0,0,0,0,0,0,0,0,0,0,0,0,0,0,0,0,0,0,0,0,0,0,0,0,0,0,0,0,0,0,0,0,0,0,0,0,0,0,0,0,0,0,0,0,0,0,0,0,0,0,0,0,0,0,0,0,0,0,0,0,0,0,0,0,0,0,0,0,0,0,0,0,0],"id":3,"left_children":[1,3,5,7,9,11,13,15,17,19,21,23,25,27,29,31,33,35,37,39,41,43,45,47,49,51,53,55,57,59,61,63,65,67,69,71,73,75,77,79,81,83,85,87,89,91,93,95,97,99,101,103,105,107,109,111,113,115,117,119,-1,-1,-1,-1,-1,-1,-1,-1,-1,-1,-1,-1,-1,-1,-1,-1,-1,-1,-1,-1,-1,-1,-1,-1,-1,-1,-1,-1,-1,-1,-1,-1,-1,-1,-1,-1,-1,-1,-1,-1,-1,-1,-1,-1,-1,-1,-1,-1,-1,-1,-1,-1,-1,-1,-1,-1,-1,-1,-1,-1,-1],"loss_changes":[1.4361495E4,1.9279258E3,2.5807432E3,2.1072119E2,3.8012073E2,3.0504932E2,6.8795605E2,1.7317749E2,4.1543945E1,4.344165E1,6.640161E1,6.473698E1,5.317798E1,7.904834E1,7.51709E1,4.2374023E1,3.9930973E0,1.1478149E1,2.5841797E1,2.7796265E1,7.462097E0,3.7195557E1,1.6112843E1,5.438417E1,1.3905838E1,2.476062E1,2.4661621E1,2.4998291E1,2.538086E1,6.2263184E0,3.4001465E0,9.67041E-1,2.7706787E1,2.932785E0,1.4327753E-1,1.2905518E1,1.8332214E0,2.3492676E1,1.7279549E0,1.7255005E1,9.294983E0,4.1645737E0,6.6513073E-1,3.2260406E1,7.3668094E0,1.0315855E1,2.63237E0,1.1511612E1,2.9261635E1,4.1746016E0,7.444336E0,8.700745E0,6.02536E0,1.0378601E1,1.0745056E1,1.4464233E1,4.0407715E0,2.3068848E0,2.9399414E0,5.9680176E-1,0E0,0E0,0E0,0E0,0E0,0E0,0E0,0E0,0E0,0E0,0E0,0E0,0E0,0E0,0E0,0E0,0E0,0E0,0E0,0E0,0E0,0E0,0E0,0E0,0E0,0E0,0E0,0E0,0E0,0E0,0E0,0E0,0E0,0E0,0E0,0E0,0E0,0E0,0E0,0E0,0E0,0E0,0E0,0E0,0E0,0E0,0E0,0E0,0E0,0E0,0E0,0E0,0E0,0E0,0E0,0E0,0E0,0E0,0E0,0E0,0E0],"parents":[2147483647,0,0,1,1,2,2,3,3,4,4,5,5,6,6,7,7,8,8,9,9,10,10,11,11,12,12,13,13,14,14,15,15,16,16,17,17,18,18,19,19,20,20,21,21,22,22,23,23,24,24,25,25,26,26,27,27,28,28,29,29,30,30,31,31,32,32,33,33,34,34,35,35,36,36,37,37,38,38,39,39,40,40,41,41,42,42,43,43,44,44,45,45,46,46,47,47,48,48,49,49,50,50,51,51,52,52,53,53,54,54,55,55,56,56,57,57,58,58,59,59],"right_children":[2,4,6,8,10,12,14,16,18,20,22,24,26,28,30,32,34,36,38,40,42,44,46,48,50,52,54,56,58,60,62,64,66,68,70,72,74,76,78,80,82,84,86,88,90,92,94,96,98,100,102,104,106,108,110,112,114,116,118,120,-1,-1,-1,-1,-1,-1,-1,-1,-1,-1,-1,-1,-1,-1,-1,-1,-1,-1,-1,-1,-1,-1,-1,-1,-1,-1,-1,-1,-1,-1,-1,-1,-1,-1,-1,-1,-1,-1,-1,-1,-1,-1,-1,-1,-1,-1,-1,-1,-1,-1,-1,-1,-1,-1,-1,-1,-1,-1,-1,-1,-1],"split_conditions":[6.0282784E0,3.8066626E0,7.866722E0,2.4849067E0,4.955827E0,6.8855095E0,9.499122E0,1.9459101E0,6.7417006E0,7.7480288E0,7.645876E0,7.513709E0,2.6258337E-1,8.742255E0,1.0352108E1,4.805965E-2,3.9318256E0,3.4965076E0,8.15335E0,4.477337E0,5.2047974E-1,1.141813E0,8.091627E0,-1.6066386E-1,-1.2647347E-1,7.301148E0,7.3821244E0,3.3677295E-1,-2.1762626E-1,3.1046936E-1,1.0931892E1,1.7917595E0,1.04295135E-1,1.2761665E-2,4.248495E0,-4.1179675E-1,6.1180973E0,1.0322216E-1,3.3322046E0,6.590301E0,7.3277807E0,4.65396E0,1.2893555E-3,5.3565865E0,-1.7465705E-1,5.332719E0,-2.0801719E-1,-6.2609893E-1,6.5834093E0,1.3748337E-1,7.830028E0,7.7574787E0,7.1268907E0,-5.3168255E-1,6.673298E0,7.661527E0,8.27614E0,8.959697E0,-5.738929E-3,7.2174435E0,2.8248817E-1,3.169591E-1,3.6839163E-1,-3.3778214E-1,-2.9108775E-1,-1.3079391E-1,-2.6256236E-1,-1.4499316E-1,-4.851471E-2,1.7308934E-2,6.9347434E-2,-1.6548133E-2,-2.3086803E-1,-2.1071093E-1,-1.6334872E-1,-1.8014969E-1,3.163027E-2,-9.3303055E-2,-3.3012718E-2,-1.6724762E-1,-1.2921762E-1,-1.186999E-1,-8.859166E-2,-8.812597E-2,-4.7270842E-2,1.8655078E-2,-2.1416958E-2,-8.557314E-2,-4.935454E-2,-3.4811474E-2,1.2767682E-2,-4.92582E-2,-1.3045749E-3,4.806115E-2,-1.8863952E-2,8.3450034E-2,2.8872514E-2,-9.826335E-3,2.5639752E-2,1.4315794E-2,5.812886E-2,5.5152576E-2,8.840809E-2,4.062552E-2,8.7898865E-2,7.070169E-2,9.7581446E-2,1.049433E-1,7.384586E-2,7.814341E-2,1.2705967E-1,1.256407E-1,1.7045592E-1,1.5465213E-1,1.7959236E-1,1.9649588E-1,2.2759056E-1,1.5450734E-1,1.8747154E-1,2.2069564E-1,2.6360962E-1],"split_indices":[0,0,0,0,0,0,0,1,2,2,2,2,37,0,0,18,1,0,2,0,28,100,2,52,53,0,0,37,72,37,0,0,76,18,1,58,2,9,0,2,2,0,36,0,30,0,8,45,0,24,2,2,2,90,2,2,0,0,26,2,0,0,0,0,0,0,0,0,0,0,0,0,0,0,0,0,0,0,0,0,0,0,0,0,0,0,0,0,0,0,0,0,0,0,0,0,0,0,0,0,0,0,0,0,0,0,0,0,0,0,0,0,0,0,0,0,0,0,0,0,0],"split_type":[0,0,0,0,0,0,0,0,0,0,0,0,0,0,0,0,0,0,0,0,0,0,0,0,0,0,0,0,0,0,0,0,0,0,0,0,0,0,0,0,0,0,0,0,0,0,0,0,0,0,0,0,0,0,0,0,0,0,0,0,0,0,0,0,0,0,0,0,0,0,0,0,0,0,0,0,0,0,0,0,0,0,0,0,0,0,0,0,0,0,0,0,0,0,0,0,0,0,0,0,0,0,0,0,0,0,0,0,0,0,0,0,0,0,0,0,0,0,0,0,0],"sum_hessian":[9.711E3,4.511E3,5.2E3,1.673E3,2.838E3,3.163E3,2.037E3,5.74E2,1.099E3,1.328E3,1.51E3,1.542E3,1.621E3,1.508E3,5.29E2,5.38E2,3.6E1,3.82E2,7.17E2,1.158E3,1.7E2,1.228E3,2.82E2,1.154E3,3.88E2,7.17E2,9.04E2,9.79E2,5.29E2,3.01E2,2.28E2,2.02E2,3.36E2,3.3E1,3E0,2.84E2,9.8E1,6.88E2,2.9E1,6.71E2,4.87E2,1.52E2,1.8E1,1.094E3,1.34E2,2.18E2,6.4E1,1.73E2,9.81E2,1.02E2,2.86E2,3.46E2,3.71E2,4.72E2,4.32E2,5.41E2,4.38E2,3.13E2,2.16E2,1.39E2,1.62E2,1.13E2,1.15E2,1.1E2,9.2E1,2E1,3.16E2,3E0,3E1,2E0,1E0,3E0,2.81E2,3.4E1,6.4E1,6.83E2,5E0,2.1E1,8E0,1.81E2,4.9E2,3.02E2,1.85E2,1.15E2,3.7E1,5E0,1.3E1,3.81E2,7.13E2,5.3E1,8.1E1,6.2E1,1.56E2,5.8E1,6E0,1.12E2,6.1E1,6.04E2,3.77E2,7.1E1,3.1E1,1.48E2,1.38E2,3.01E2,4.5E1,1.84E2,1.87E2,1.96E2,2.76E2,5.8E1,3.74E2,4.43E2,9.8E1,2.18E2,2.2E2,1.12E2,2.01E2,1.24E2,9.2E1,8E1,5.9E1],"tree_param":{"num_deleted":"0","num_feature":"106","num_nodes":"121","size_leaf_vector":"1"}},{"base_weights":[4.3320665E-4,-1.1752671E0,1.0203831E0,-1.8898702E0,-6.892082E-1,5.704899E-1,1.9180269E0,-2.301995E0,-1.5971938E0,-1.0067247E0,-3.7865585E-1,3.2322088E-1,9.717531E-1,1.6064218E0,2.7917845E0,-2.3889482E0,-3.8525525E-1,-6.531131E-1,-1.628458E0,-1.0833403E0,-6.283455E-1,-4.7209328E-1,3.8283512E-3,1.785439E-1,5.906266E-1,7.857104E-1,1.1149801E0,1.4535279E0,1.9223387E0,2.547369E0,3.2575758E0,-2.7183902E0,-2.1645858E0,-4.8067513E-1,4.5056272E-1,-7.7933446E-2,-7.6555127E-1,-1.8296303E0,-1.4792235E0,-1.212271E0,-9.2427343E-1,-8.2235414E-1,-4.2352998E-1,-7.104517E-2,-5.3779125E-1,-1.0489471E-1,3.9928934E-1,-5.7053022E-2,3.2893893E-1,4.0524828E-1,7.259502E-1,6.0719055E-1,9.4461584E-1,9.967003E-1,1.2956815E0,1.3092344E0,1.6469388E0,1.6862514E0,2.11999E0,2.8452253E-1,2.4081564E0,2.402184E-1,3.3264485E-1,-2.8378257E-1,-1.6328378E-1,-2.2174917E-1,-1.0706037E-1,-3.2185994E-2,-7.820011E-2,1.6154988E-2,6.588006E-2,-2.398533E-2,2.1791076E-2,-8.9435995E-2,-2.9953254E-2,4.066519E-2,-1.8564545E-1,5.6064833E-2,-1.4938547E-1,-8.584162E-2,-1.2771957E-1,-9.799712E-2,-5.4485794E-2,-9.252827E-2,-4.9988057E-2,-5.4476943E-2,-1.1678196E-2,-4.0610567E-2,1.39107695E-2,-6.5652214E-2,-3.7261117E-2,-4.54196E-2,-7.4684765E-4,4.40634E-2,-2.6902175E-2,-1.722356E-2,2.8306553E-2,2.6085222E-2,7.222999E-2,1.671706E-2,5.308916E-2,6.823586E-2,1.23497665E-1,-2.1942274E-3,6.3849084E-2,8.684879E-2,1.2734774E-1,9.559888E-2,1.4172268E-1,1.1426636E-1,1.4088325E-1,1.2208798E-1,1.5065299E-1,1.6566768E-1,3.4904957E-2,1.5885992E-1,2.0453338E-1,7.992408E-2,2.1283641E-1,1.531972E-1,2.434876E-1],"categories":[],"categories_nodes":[],"categories_segments":[],"categories_sizes":[],"default_left":[0,0,0,0,0,0,0,0,0,0,0,0,0,0,0,0,0,0,0,0,0,0,0,0,0,0,0,0,0,0,0,0,0,0,0,0,0,0,0,0,0,0,0,0,0,0,0,0,0,0,0,0,0,0,0,0,0,0,0,0,0,0,0,0,0,0,0,0,0,0,0,0,0,0,0,0,0,0,0,0,0,0,0,0,0,0,0,0,0,0,0,0,0,0,0,0,0,0,0,0,0,0,0,0,0,0,0,0,0,0,0,0,0,0,0,0,0,0,0,0,0],"id":4,"left_children":[1,3,5,7,9,11,13,15,17,19,21,23,25,27,29,31,33,35,37,39,41,43,45,47,49,51,53,55,57,59,61,63,65,67,69,71,73,75,77,79,81,83,85,87,89,91,93,95,97,99,101,103,105,107,109,111,113,115,117,-1,119,-1,-1,-1,-1,-1,-1,-1,-1,-1,-1,-1,-1,-1,-1,-1,-1,-1,-1,-1,-1,-1,-1,-1,-1,-1,-1,-1,-1,-1,-1,-1,-1,-1,-1,-1,-1,-1,-1,-1,-1,-1,-1,-1,-1,-1,-1,-1,-1,-1,-1,-1,-1,-1,-1,-1,-1,-1,-1,-1,-1],"loss_changes":[1.1647396E4,1.5658916E3,2.0992983E3,2.1657373E2,2.6457178E2,3.4358228E2,4.681709E2,1.25079834E2,3.0547852E1,3.781775E1,4.8605957E1,8.291785E1,3.4323853E1,5.9128418E1,4.3501953E1,4.7555664E1,2.9281988E0,2.2685347E0,2.8395996E1,2.1500488E1,8.632042E0,2.8760193E1,1.1564738E1,4.941182E1,1.8595581E1,1.5822998E1,1.4610352E1,2.2067871E1,1.5790283E1,5.712158E0,1.0230713E0,3.283618E1,2.2802979E1,1.2318144E0,1.3430452E-1,3.8758793E-1,1.5329266E0,2.6968994E1,1.8744873E1,1.2825806E1,9.990082E0,3.3545074E0,4.101656E0,1.0970651E1,1.817102E1,7.1771717E0,1.7211428E0,2.1360352E1,2.260363E1,9.483368E0,8.78746E0,5.4293213E0,6.5047913E0,6.4177246E0,3.4285889E0,6.911499E0,4.0602417E0,3.5534058E0,7.5427246E-1,0E0,1.2564697E0,0E0,0E0,0E0,0E0,0E0,0E0,0E0,0E0,0E0,0E0,0E0,0E0,0E0,0E0,0E0,0E0,0E0,0E0,0E0,0E0,0E0,0E0,0E0,0E0,0E0,0E0,0E0,0E0,0E0,0E0,0E0,0E0,0E0,0E0,0E0,0E0,0E0,0E0,0E0,0E0,0E0,0E0,0E0,0E0,0E0,0E0,0E0,0E0,0E0,0E0,0E0,0E0,0E0,0E0,0E0,0E0,0E0,0E0,0E0,0E0],"parents":[2147483647,0,0,1,1,2,2,3,3,4,4,5,5,6,6,7,7,8,8,9,9,10,10,11,11,12,12,13,13,14,14,15,15,16,16,17,17,18,18,19,19,20,20,21,21,22,22,23,23,24,24,25,25,26,26,27,27,28,28,29,29,30,30,31,31,32,32,33,33,34,34,35,35,36,36,37,37,38,38,39,39,40,40,41,41,42,42,43,43,44,44,45,45,46,46,47,47,48,48,49,49,50,50,51,51,52,52,53,53,54,54,55,55,56,56,57,57,58,58,60,60],"right_children":[2,4,6,8,10,12,14,16,18,20,22,24,26,28,30,32,34,36,38,40,42,44,46,48,50,52,54,56,58,60,62,64,66,68,70,72,74,76,78,80,82,84,86,88,90,92,94,96,98,100,102,104,106,108,110,112,114,116,118,-1,120,-1,-1,-1,-1,-1,-1,-1,-1,-1,-1,-1,-1,-1,-1,-1,-1,-1,-1,-1,-1,-1,-1,-1,-1,-1,-1,-1,-1,-1,-1,-1,-1,-1,-1,-1,-1,-1,-1,-1,-1,-1,-1,-1,-1,-1,-1,-1,-1,-1,-1,-1,-1,-1,-1,-1,-1,-1,-1,-1,-1],"split_conditions":[6.0282784E0,3.9512436E0,8.117312E0,2.7725887E0,5.081404E0,7.215975E0,9.67143E0,2.3025851E0,2.016E3,7.6852436E0,7.6197243E0,3.507492E-1,4.3148625E-1,8.959697E0,1.069989E1,1.9459101E0,3.9318256E0,-1.8165639E-1,3.3322046E0,4.574711E0,4.574711E0,-2.840776E-1,8.091627E0,6.50279E0,6.6227365E0,7.577634E0,7.7415338E0,5.2526087E-1,4.1424048E-1,-3.0535442E-1,6.156979E0,-7.811919E-2,7.974877E0,-2.4699675E-1,4.248495E0,-4.9512032E-2,1.609438E0,5.382044E-2,-4.587842E-1,-5.3855296E-2,5.5333304E-1,8.020927E0,3.4377494E-1,5.1150346E-1,5.6489744E0,5.332719E0,-2.7561778E-1,7.425954E0,7.7634463E0,3.3818208E-2,7.9956436E0,2.944439E0,7.7266536E0,7.8204393E0,-1.03691265E-1,7.380879E0,-1.012602E-1,7.398786E0,-6.002948E-2,2.8452253E-1,5.398163E0,2.402184E-1,3.3264485E-1,-2.8378257E-1,-1.6328378E-1,-2.2174917E-1,-1.0706037E-1,-3.2185994E-2,-7.820011E-2,1.6154988E-2,6.588006E-2,-2.398533E-2,2.1791076E-2,-8.9435995E-2,-2.9953254E-2,4.066519E-2,-1.8564545E-1,5.6064833E-2,-1.4938547E-1,-8.584162E-2,-1.2771957E-1,-9.799712E-2,-5.4485794E-2,-9.252827E-2,-4.9988057E-2,-5.4476943E-2,-1.1678196E-2,-4.0610567E-2,1.39107695E-2,-6.5652214E-2,-3.7261117E-2,-4.54196E-2,-7.4684765E-4,4.40634E-2,-2.6902175E-2,-1.722356E-2,2.8306553E-2,2.6085222E-2,7.222999E-2,1.671706E-2,5.308916E-2,6.823586E-2,1.23497665E-1,-2.1942274E-3,6.3849084E-2,8.684879E-2,1.2734774E-1,9.559888E-2,1.4172268E-1,1.1426636E-1,1.4088325E-1,1.2208798E-1,1.5065299E-1,1.6566768E-1,3.4904957E-2,1.5885992E-1,2.0453338E-1,7.992408E-2,2.1283641E-1,1.531972E-1,2.434876E-1],"split_indices":[0,0,0,0,0,0,0,1,3,2,2,37,92,0,0,0,1,61,0,0,0,105,2,0,0,0,0,92,92,105,2,63,2,72,1,10,1,76,58,91,68,2,79,68,0,0,27,2,2,77,2,1,2,2,30,2,88,2,75,0,2,0,0,0,0,0,0,0,0,0,0,0,0,0,0,0,0,0,0,0,0,0,0,0,0,0,0,0,0,0,0,0,0,0,0,0,0,0,0,0,0,0,0,0,0,0,0,0,0,0,0,0,0,0,0,0,0,0,0,0,0],"split_type":[0,0,0,0,0,0,0,0,0,0,0,0,0,0,0,0,0,0,0,0,0,0,0,0,0,0,0,0,0,0,0,0,0,0,0,0,0,0,0,0,0,0,0,0,0,0,0,0,0,0,0,0,0,0,0,0,0,0,0,0,0,0,0,0,0,0,0,0,0,0,0,0,0,0,0,0,0,0,0,0,0,0,0,0,0,0,0,0,0,0,0,0,0,0,0,0,0,0,0,0,0,0,0,0,0,0,0,0,0,0,0,0,0,0,0,0,0,0,0,0,0],"sum_hessian":[9.711E3,4.511E3,5.2E3,1.825E3,2.686E3,3.465E3,1.735E3,7.55E2,1.07E3,1.327E3,1.359E3,2.145E3,1.32E3,1.281E3,4.54E2,7.22E2,3.3E1,3.5E1,1.035E3,1.102E3,2.25E2,1.092E3,2.67E2,1.393E3,7.52E2,5.77E2,7.43E2,8.67E2,4.14E2,3.02E2,1.52E2,2.88E2,4.34E2,3E1,3E0,6E0,2.9E1,4.36E2,5.99E2,6.05E2,4.97E2,1.14E2,1.11E2,1.54E2,9.38E2,2.1E2,5.7E1,5.43E2,8.5E2,3.19E2,4.33E2,2.74E2,3.03E2,4.53E2,2.9E2,5.01E2,3.66E2,1.93E2,2.21E2,9E1,2.12E2,1.4E1,1.38E2,2.58E2,3E1,4.13E2,2.1E1,2.1E1,9E0,2E0,1E0,4E0,2E0,2.2E1,7E0,5E0,4.31E2,4E0,5.95E2,9.6E1,5.09E2,4.32E2,6.5E1,8.5E1,2.9E1,7.9E1,3.2E1,5.9E1,9.5E1,5.44E2,3.94E2,4.5E1,1.65E2,5.4E1,3E0,4.06E2,1.37E2,7.26E2,1.24E2,1.11E2,2.08E2,4.01E2,3.2E1,1.3E1,2.61E2,2.49E2,5.4E1,4.16E2,3.7E1,1.28E2,1.62E2,3.51E2,1.5E2,3.63E2,3E0,1.56E2,3.7E1,2E0,2.19E2,8E0,2.04E2],"tree_param":{"num_deleted":"0","num_feature":"106","num_nodes":"121","size_leaf_vector":"1"}},{"base_weights":[5.5718655E-4,-1.017995E0,9.5551324E-1,-1.5816406E0,-4.8494387E-1,6.055877E-1,1.8608283E0,-1.993152E0,-1.2822952E0,-7.327269E-1,-2.3634924E-1,3.407914E-1,9.5928454E-1,1.579231E0,2.6130362E0,-2.04946E0,-5.331091E-1,-1.5548165E0,-1.1682007E0,-8.328025E-1,-4.699325E-1,-3.1494698E-1,1.8120413E-1,2.0877601E-1,5.743223E-1,7.699243E-1,1.0922614E0,1.4323382E0,1.8670932E0,2.3841393E0,2.9355628E0,-2.448098E0,-1.8650954E0,-1.6922318E0,-2.99114E-1,-1.7191018E0,-1.3934213E0,-9.408254E-1,-1.294132E0,-3.480127E-1,-8.791443E-1,-5.514147E-1,-7.8034304E-2,3.2456598E-1,-3.5396293E-1,-3.8544897E-2,3.7145856E-1,3.643418E-2,3.642275E-1,4.0254167E-1,6.899969E-1,9.4965225E-1,6.360808E-1,1.000749E0,1.3274463E0,1.1870522E0,1.569835E0,1.5918976E0,2.0000825E0,2.2404137E-1,2.6299688E-1,2.1779804E-1,2.9961973E-1,-2.5509465E-1,-1.4380419E-1,-3.9931428E-2,-1.8950406E-1,-2.5800038E-2,-1.927478E-1,-3.8881753E-2,4.2601515E-2,-1.8286704E-1,-1.3889146E-1,-1.6686429E-1,-1.316864E-1,2.4187346E-1,-9.579717E-2,-1.4835976E-1,-1.13404475E-1,1.14316724E-1,-4.229021E-2,-9.6572734E-2,-7.454161E-2,-7.209713E-2,-4.199795E-2,-6.218771E-2,3.229494E-3,6.327643E-2,-2.2252968E-2,-5.9613694E-2,-2.8976722E-2,-3.094448E-2,1.2372074E-2,5.5829346E-2,2.4397148E-2,-6.289625E-3,3.30448E-2,3.0847777E-2,7.1798146E-2,6.265326E-2,1.7590247E-2,6.0856916E-2,8.54271E-2,8.148482E-2,1.10397615E-1,5.821675E-2,1.0337879E-1,9.1959506E-2,1.2576503E-1,-4.887581E-5,1.3327602E-1,1.09531306E-1,1.4503293E-1,1.811493E-1,1.5018493E-1,1.5977657E-1,4.5852996E-2,1.8077758E-1,2.0873299E-1],"categories":[],"categories_nodes":[],"categories_segments":[],"categories_sizes":[],"default_left":[0,0,0,0,0,0,0,0,0,0,0,0,0,0,0,0,0,0,0,0,0,0,0,0,0,0,0,0,0,0,0,0,0,0,0,0,0,0,0,0,0,0,0,0,0,0,0,0,0,0,0,0,0,0,0,0,0,0,0,0,0,0,0,0,0,0,0,0,0,0,0,0,0,0,0,0,0,0,0,0,0,0,0,0,0,0,0,0,0,0,0,0,0,0,0,0,0,0,0,0,0,0,0,0,0,0,0,0,0,0,0,0,0,0,0,0,0,0,0],"id":5,"left_children":[1,3,5,7,9,11,13,15,17,19,21,23,25,27,29,31,33,35,37,39,41,43,45,47,49,51,53,55,57,59,61,63,65,67,69,71,73,75,77,79,81,83,85,87,89,91,93,95,97,99,101,103,105,107,109,111,113,115,117,-1,-1,-1,-1,-1,-1,-1,-1,-1,-1,-1,-1,-1,-1,-1,-1,-1,-1,-1,-1,-1,-1,-1,-1,-1,-1,-1,-1,-1,-1,-1,-1,-1,-1,-1,-1,-1,-1,-1,-1,-1,-1,-1,-1,-1,-1,-1,-1,-1,-1,-1,-1,-1,-1,-1,-1,-1,-1,-1,-1],"loss_changes":[9.447569E3,1.4113574E3,1.5869556E3,2.787964E2,1.4870801E2,3.3843262E2,2.9178564E2,7.783081E1,3.9381836E1,3.1430786E1,3.9702118E1,6.369751E1,3.813855E1,4.0414062E1,2.0981201E1,6.3343018E1,9.529307E0,7.892334E0,2.564087E1,1.9351868E1,1.0686371E1,2.5490273E1,8.041498E0,3.5457745E1,1.4565643E1,1.4839539E1,1.8192383E1,2.1036499E1,9.2960205E0,2.1280518E0,5.024414E-1,2.6353882E1,2.715918E1,1.5270939E0,2.2471344E0,4.2615967E0,2.0377197E0,2.17872E1,1.6546509E1,9.193989E0,8.519836E0,5.8926315E0,3.5601873E0,1.0089035E1,1.4736382E1,3.994482E0,2.317152E0,1.8390427E1,1.3504822E1,1.5271622E1,5.4326324E0,4.758957E0,7.3530273E0,1.2540955E1,1.771759E0,4.4013367E0,4.376831E0,3.8879395E-2,1.8493652E-2,0E0,0E0,0E0,0E0,0E0,0E0,0E0,0E0,0E0,0E0,0E0,0E0,0E0,0E0,0E0,0E0,0E0,0E0,0E0,0E0,0E0,0E0,0E0,0E0,0E0,0E0,0E0,0E0,0E0,0E0,0E0,0E0,0E0,0E0,0E0,0E0,0E0,0E0,0E0,0E0,0E0,0E0,0E0,0E0,0E0,0E0,0E0,0E0,0E0,0E0,0E0,0E0,0E0,0E0,0E0,0E0,0E0,0E0,0E0,0E0],"parents":[2147483647,0,0,1,1,2,2,3,3,4,4,5,5,6,6,7,7,8,8,9,9,10,10,11,11,12,12,13,13,14,14,15,15,16,16,17,17,18,18,19,19,20,20,21,21,22,22,23,23,24,24,25,25,26,26,27,27,28,28,29,29,30,30,31,31,32,32,33,33,34,34,35,35,36,36,37,37,38,38,39,39,40,40,41,41,42,42,43,43,44,44,45,45,46,46,47,47,48,48,49,49,50,50,51,51,52,52,53,53,54,54,55,55,56,56,57,57,58,58],"right_children":[2,4,6,8,10,12,14,16,18,20,22,24,26,28,30,32,34,36,38,40,42,44,46,48,50,52,54,56,58,60,62,64,66,68,70,72,74,76,78,80,82,84,86,88,90,92,94,96,98,100,102,104,106,108,110,112,114,116,118,-1,-1,-1,-1,-1,-1,-1,-1,-1,-1,-1,-1,-1,-1,-1,-1,-1,-1,-1,-1,-1,-1,-1,-1,-1,-1,-1,-1,-1,-1,-1,-1,-1,-1,-1,-1,-1,-1,-1,-1,-1,-1,-1,-1,-1,-1,-1,-1,-1,-1,-1,-1,-1,-1,-1,-1,-1,-1,-1,-1],"split_conditions":[6.154858E0,4.3438053E0,8.409608E0,3.0445225E0,5.332719E0,7.2800083E0,9.89968E0,2.3025851E0,6.705639E0,7.513709E0,7.7106533E0,3.533862E-1,7.6884556E0,9.185637E0,1.069989E1,1.9459101E0,2.3861553E-1,3.6888795E0,-1.2396515E-1,-6.603675E-2,8.020927E0,-1.8834488E-1,2.0967764E-1,6.675823E0,7.9323865E-2,-4.3206997E-2,5.241231E-1,6.509462E-1,1.9144966E-1,1.1585428E0,6.156979E0,-7.103681E-2,-1.7918581E-1,6.931472E-1,3.9318256E0,3.9156783E-1,6.1773777E-2,1.1457248E-1,3.713572E0,7.726166E-2,4.955827E0,4.7957907E0,-2.4143076E-1,-1.10902034E-1,6.349139E0,-8.856857E-1,2.0501116E-1,7.454141E0,7.770645E0,2.02E3,6.989335E0,4.4025263E-1,7.795235E0,7.6530204E0,2.5649493E0,7.358194E0,1.7037882E-1,-1.2275395E-2,6.9930153E0,2.2404137E-1,2.6299688E-1,2.1779804E-1,2.9961973E-1,-2.5509465E-1,-1.4380419E-1,-3.9931428E-2,-1.8950406E-1,-2.5800038E-2,-1.927478E-1,-3.8881753E-2,4.2601515E-2,-1.8286704E-1,-1.3889146E-1,-1.6686429E-1,-1.316864E-1,2.4187346E-1,-9.579717E-2,-1.4835976E-1,-1.13404475E-1,1.14316724E-1,-4.229021E-2,-9.6572734E-2,-7.454161E-2,-7.209713E-2,-4.199795E-2,-6.218771E-2,3.229494E-3,6.327643E-2,-2.2252968E-2,-5.9613694E-2,-2.8976722E-2,-3.094448E-2,1.2372074E-2,5.5829346E-2,2.4397148E-2,-6.289625E-3,3.30448E-2,3.0847777E-2,7.1798146E-2,6.265326E-2,1.7590247E-2,6.0856916E-2,8.54271E-2,8.148482E-2,1.10397615E-1,5.821675E-2,1.0337879E-1,9.1959506E-2,1.2576503E-1,-4.887581E-5,1.3327602E-1,1.09531306E-1,1.4503293E-1,1.811493E-1,1.5018493E-1,1.5977657E-1,4.5852996E-2,1.8077758E-1,2.0873299E-1],"split_indices":[0,0,0,0,0,0,0,1,2,2,2,37,0,0,0,0,76,0,9,91,2,52,12,0,77,10,28,102,12,100,2,63,16,0,1,37,42,28,0,76,0,0,66,43,2,25,41,2,2,3,0,96,2,2,1,2,23,53,2,0,0,0,0,0,0,0,0,0,0,0,0,0,0,0,0,0,0,0,0,0,0,0,0,0,0,0,0,0,0,0,0,0,0,0,0,0,0,0,0,0,0,0,0,0,0,0,0,0,0,0,0,0,0,0,0,0,0,0,0],"split_type":[0,0,0,0,0,0,0,0,0,0,0,0,0,0,0,0,0,0,0,0,0,0,0,0,0,0,0,0,0,0,0,0,0,0,0,0,0,0,0,0,0,0,0,0,0,0,0,0,0,0,0,0,0,0,0,0,0,0,0,0,0,0,0,0,0,0,0,0,0,0,0,0,0,0,0,0,0,0,0,0,0,0,0,0,0,0,0,0,0,0,0,0,0,0,0,0,0,0,0,0,0,0,0,0,0,0,0,0,0,0,0,0,0,0,0,0,0,0,0],"sum_hessian":[9.711E3,4.699E3,5.012E3,2.283E3,2.416E3,3.616E3,1.396E3,9.59E2,1.324E3,1.209E3,1.207E3,2.069E3,1.547E3,1.018E3,3.78E2,9.23E2,3.6E1,3.87E2,9.37E2,8.74E2,3.35E2,1.016E3,1.91E2,1.323E3,7.46E2,6.41E2,9.06E2,6.78E2,3.4E2,2.26E2,1.52E2,2.88E2,6.35E2,5E0,3.1E1,1.87E2,2E2,3.37E2,6E2,7.7E1,7.97E2,2.77E2,5.8E1,5.8E1,9.58E2,8.9E1,1.02E2,6.28E2,6.95E2,3.02E2,4.44E2,2.71E2,3.7E2,6.56E2,2.5E2,2.47E2,4.31E2,1.15E2,2.25E2,1.49E2,7.7E1,1.4E1,1.38E2,2.6E2,2.8E1,1.3E1,6.22E2,1E0,4E0,2.8E1,3E0,1.37E2,5E1,3.9E1,1.61E2,1E0,3.36E2,2.71E2,3.29E2,3E0,7.4E1,4.8E2,3.17E2,1.19E2,1.58E2,9E0,4.9E1,3.7E1,2.1E1,1.99E2,7.59E2,3.3E1,5.6E1,4E1,6.2E1,4.7E2,1.58E2,6.02E2,9.3E1,1.51E2,1.51E2,3E2,1.44E2,1.48E2,1.23E2,3.28E2,4.2E1,5.02E2,1.54E2,1E0,2.49E2,1.87E2,6E1,8.9E1,3.42E2,1.14E2,1E0,7.7E1,1.48E2],"tree_param":{"num_deleted":"0","num_feature":"106","num_nodes":"119","size_leaf_vector":"1"}},{"base_weights":[6.464501E-4,-9.92954E-1,7.9655844E-1,-1.5765624E0,-6.234968E-1,3.8666227E-1,1.4711487E0,-1.9257644E0,-1.3682644E0,-8.699463E-1,-3.7470606E-1,1.2097624E-1,6.119021E-1,1.2038901E0,2.160702E0,-2.0218513E0,-3.4931156E-1,-1.2042437E0,-1.5163486E0,-9.226177E-1,-5.0786394E-1,-4.8065948E-1,-1.22921735E-1,5.2357104E-2,5.2418625E-1,5.1632136E-1,8.1993246E-1,1.0560162E0,1.3931915E0,1.8198925E0,2.4506817E0,-1.7785145E0,-2.289602E0,-1.1798328E-1,-2.4132931E-1,1.9009352E-1,-1.2141962E0,-1.5253624E0,1.7116027E-1,-8.2025E-1,-1.079774E0,-6.562643E-1,-2.8960624E-1,-1.4049907E-1,-5.540356E-1,-2.0158273E-1,3.0721554E-1,-2.0746501E-2,3.8248068E-1,2.7693844E-1,7.008351E-1,8.2951885E-1,4.5354694E-1,6.7759085E-1,9.3966615E-1,9.6399504E-1,1.2808586E0,1.6002563E0,1.2517177E0,1.5736579E0,1.9254729E-1,2.2786107E0,2.7099123E0,2.1347652E-1,-1.8362674E-1,-2.1406136E-1,-2.615982E-1,-3.155307E-2,3.9406396E-2,-8.82625E-2,-1.3005035E-1,-1.6356334E-1,-1.3496235E-1,1.5379281E-1,-8.39264E-2,-1.2086981E-1,-9.00759E-2,-7.072912E-2,-3.165574E-2,-4.9403977E-2,-1.1881924E-2,-4.4933118E-2,6.2703057E-3,-6.962725E-2,-4.6036962E-2,-3.8600218E-2,-8.544969E-3,-1.6109154E-2,3.6123253E-2,-2.3574961E-2,5.625932E-3,5.6846734E-2,1.3558969E-2,4.737658E-2,4.7713257E-3,7.737448E-2,3.0774489E-2,3.522938E-2,9.675019E-2,3.54759E-2,6.370827E-2,8.55515E-2,5.6028362E-2,1.0998154E-1,8.546172E-2,9.1039605E-2,1.2869059E-1,1.2502038E-1,1.8547674E-1,1.4630882E-1,1.7312558E-1,1.1767411E-1,1.5677865E-1,1.5820204E-1,4.3560363E-2,2.3565994E-1,1.8385248E-1,1.97224E-1,2.7760646E-1],"categories":[],"categories_nodes":[],"categories_segments":[],"categories_sizes":[],"default_left":[0,0,0,0,0,0,0,0,0,0,0,0,0,0,0,0,0,0,0,0,0,0,0,0,0,0,0,0,0,0,0,0,0,0,0,0,0,0,0,0,0,0,0,0,0,0,0,0,0,0,0,0,0,0,0,0,0,0,0,0,0,0,0,0,0,0,0,0,0,0,0,0,0,0,0,0,0,0,0,0,0,0,0,0,0,0,0,0,0,0,0,0,0,0,0,0,0,0,0,0,0,0,0,0,0,0,0,0,0,0,0,0,0,0,0,0,0,0,0],"id":6,"left_children":[1,3,5,7,9,11,13,15,17,19,21,23,25,27,29,31,33,35,37,39,41,43,45,47,49,51,53,55,57,59,61,63,65,-1,67,-1,69,71,-1,73,75,77,79,81,83,85,87,89,91,93,95,97,99,101,103,105,107,109,111,113,-1,115,117,-1,-1,-1,-1,-1,-1,-1,-1,-1,-1,-1,-1,-1,-1,-1,-1,-1,-1,-1,-1,-1,-1,-1,-1,-1,-1,-1,-1,-1,-1,-1,-1,-1,-1,-1,-1,-1,-1,-1,-1,-1,-1,-1,-1,-1,-1,-1,-1,-1,-1,-1,-1,-1,-1,-1,-1],"loss_changes":[7.68122E3,9.304888E2,1.4906606E3,1.1912842E2,1.6197314E2,2.0075934E2,3.729795E2,9.3663574E1,2.372583E1,2.487732E1,3.5128403E1,4.260882E1,3.5685425E1,3.9706055E1,5.1674072E1,3.417285E1,3.0334892E0,1.7883911E1,1.8584473E1,1.7759949E1,5.348549E0,2.3084732E1,1.332526E1,3.1815523E1,9.589344E0,2.4140808E1,9.07782E0,1.5938171E1,1.6803833E1,3.859314E0,7.385498E0,7.443292E1,7.821167E0,0E0,1.7273401E0,0E0,1.324646E1,8.412109E0,0E0,3.2946686E1,9.389282E0,1.5268517E0,2.4202347E0,1.0445561E1,9.844696E0,7.077524E0,1.6012807E0,1.7894272E1,1.0897427E1,4.2635846E0,3.4876938E0,1.3289886E1,1.8648499E1,5.0308228E0,3.2415771E0,9.091858E0,1.8682861E0,2.085022E0,7.30249E0,1.1981201E-1,0E0,2.1540527E0,1.8560791E-1,0E0,0E0,0E0,0E0,0E0,0E0,0E0,0E0,0E0,0E0,0E0,0E0,0E0,0E0,0E0,0E0,0E0,0E0,0E0,0E0,0E0,0E0,0E0,0E0,0E0,0E0,0E0,0E0,0E0,0E0,0E0,0E0,0E0,0E0,0E0,0E0,0E0,0E0,0E0,0E0,0E0,0E0,0E0,0E0,0E0,0E0,0E0,0E0,0E0,0E0,0E0,0E0,0E0,0E0,0E0,0E0],"parents":[2147483647,0,0,1,1,2,2,3,3,4,4,5,5,6,6,7,7,8,8,9,9,10,10,11,11,12,12,13,13,14,14,15,15,16,16,17,17,18,18,19,19,20,20,21,21,22,22,23,23,24,24,25,25,26,26,27,27,28,28,29,29,30,30,31,31,32,32,34,34,36,36,37,37,39,39,40,40,41,41,42,42,43,43,44,44,45,45,46,46,47,47,48,48,49,49,50,50,51,51,52,52,53,53,54,54,55,55,56,56,57,57,58,58,59,59,61,61,62,62],"right_children":[2,4,6,8,10,12,14,16,18,20,22,24,26,28,30,32,34,36,38,40,42,44,46,48,50,52,54,56,58,60,62,64,66,-1,68,-1,70,72,-1,74,76,78,80,82,84,86,88,90,92,94,96,98,100,102,104,106,108,110,112,114,-1,116,118,-1,-1,-1,-1,-1,-1,-1,-1,-1,-1,-1,-1,-1,-1,-1,-1,-1,-1,-1,-1,-1,-1,-1,-1,-1,-1,-1,-1,-1,-1,-1,-1,-1,-1,-1,-1,-1,-1,-1,-1,-1,-1,-1,-1,-1,-1,-1,-1,-1,-1,-1,-1,-1,-1,-1,-1],"split_conditions":[5.9053617E0,3.8066626E0,7.866722E0,2.5649493E0,4.955827E0,6.788972E0,9.423595E0,1.9459101E0,-6.826555E-2,7.7480288E0,7.4389715E0,7.7634463E0,4.7301546E-1,8.585786E0,1.0084058E1,1.7003767E-1,1.2761665E-2,2.1454526E-1,8.267853E-1,-5.1839747E-2,3.4772298E-1,-2.517153E-2,8.091627E0,4.7825253E-1,1.2038127E-1,2.018E3,7.2800083E0,-5.158948E-2,-3.1028637E-1,1.9897419E-1,1.0931892E1,-1.528495E-1,7.795235E0,-1.1798328E-1,3.9318256E0,1.9009352E-1,-1.8925619E-1,3.3672957E0,1.7116027E-1,5.671987E-2,4.4426513E0,8.15335E0,7.8792915E0,8.992591E-2,5.3565865E0,5.332719E0,1.989207E-1,6.664409E0,-2.840776E-1,1.3608164E-1,3.8242713E-2,-5.168852E-2,7.425358E0,-1.4247704E-1,3.583519E0,7.7634463E0,7.889834E0,8.959697E0,7.501082E0,3.7664548E-2,1.9254729E-1,-1.7017625E-1,5.9788857E0,2.1347652E-1,-1.8362674E-1,-2.1406136E-1,-2.615982E-1,-3.155307E-2,3.9406396E-2,-8.82625E-2,-1.3005035E-1,-1.6356334E-1,-1.3496235E-1,1.5379281E-1,-8.39264E-2,-1.2086981E-1,-9.00759E-2,-7.072912E-2,-3.165574E-2,-4.9403977E-2,-1.1881924E-2,-4.4933118E-2,6.2703057E-3,-6.962725E-2,-4.6036962E-2,-3.8600218E-2,-8.544969E-3,-1.6109154E-2,3.6123253E-2,-2.3574961E-2,5.625932E-3,5.6846734E-2,1.3558969E-2,4.737658E-2,4.7713257E-3,7.737448E-2,3.0774489E-2,3.522938E-2,9.675019E-2,3.54759E-2,6.370827E-2,8.55515E-2,5.6028362E-2,1.0998154E-1,8.546172E-2,9.1039605E-2,1.2869059E-1,1.2502038E-1,1.8547674E-1,1.4630882E-1,1.7312558E-1,1.1767411E-1,1.5677865E-1,1.5820204E-1,4.3560363E-2,2.3565994E-1,1.8385248E-1,1.97224E-1,2.7760646E-1],"split_indices":[0,0,0,0,0,0,0,1,19,2,2,2,28,0,0,55,18,7,7,19,28,91,2,28,18,3,0,30,103,12,0,16,2,0,1,0,9,0,0,24,0,2,2,77,0,0,79,2,105,42,10,64,0,43,1,2,2,0,2,43,0,72,2,0,0,0,0,0,0,0,0,0,0,0,0,0,0,0,0,0,0,0,0,0,0,0,0,0,0,0,0,0,0,0,0,0,0,0,0,0,0,0,0,0,0,0,0,0,0,0,0,0,0,0,0,0,0,0,0],"split_type":[0,0,0,0,0,0,0,0,0,0,0,0,0,0,0,0,0,0,0,0,0,0,0,0,0,0,0,0,0,0,0,0,0,0,0,0,0,0,0,0,0,0,0,0,0,0,0,0,0,0,0,0,0,0,0,0,0,0,0,0,0,0,0,0,0,0,0,0,0,0,0,0,0,0,0,0,0,0,0,0,0,0,0,0,0,0,0,0,0,0,0,0,0,0,0,0,0,0,0,0,0,0,0,0,0,0,0,0,0,0,0,0,0,0,0,0,0,0,0],"sum_hessian":[9.711E3,4.319E3,5.392E3,1.673E3,2.646E3,3.355E3,2.037E3,6.22E2,1.051E3,1.328E3,1.318E3,1.54E3,1.815E3,1.47E3,5.67E2,5.86E2,3.6E1,5.03E2,5.48E2,1.158E3,1.7E2,9.27E2,3.91E2,1.317E3,2.23E2,1.246E3,5.69E2,8.29E2,6.41E2,2.64E2,3.03E2,3.11E2,2.75E2,3E0,3.3E1,1E0,5.02E2,5.47E2,1E0,7.05E2,4.53E2,1E2,7E1,1.65E2,7.62E2,3.31E2,6E1,1.079E3,2.38E2,9.4E1,1.29E2,2.06E2,1.04E3,2.63E2,3.06E2,5.92E2,2.37E2,2.56E2,3.85E2,8.4E1,1.8E2,1.88E2,1.15E2,4E0,3.07E2,1.94E2,8.1E1,3E1,3E0,1.06E2,3.96E2,3.31E2,2.16E2,5E0,7E2,2.6E2,1.93E2,8.6E1,1.4E1,3.1E1,3.9E1,6.5E1,1E2,3E2,4.62E2,1.27E2,2.04E2,6E0,5.4E1,2.84E2,7.95E2,1.35E2,1.03E2,5E1,4.4E1,1.08E2,2.1E1,4.7E1,1.59E2,6.78E2,3.62E2,1.02E2,1.61E2,1.02E2,2.04E2,5.11E2,8.1E1,2.28E2,9E0,1.31E2,1.25E2,3.15E2,7E1,8.3E1,1E0,1.56E2,3.2E1,1.2E1,1.03E2],"tree_param":{"num_deleted":"0","num_feature":"106","num_nodes":"119","size_leaf_vector":"1"}},{"base_weights":[7.8735704E-4,-8.262507E-1,7.761869E-1,-1.2841606E0,-3.9319628E-1,4.4808546E-1,1.4159045E0,-1.6088144E0,-1.030962E0,-5.8520657E-1,-1.8906496E-1,2.590419E-1,7.080887E-1,1.1974132E0,2.0847495E0,-1.6432014E0,-1.4337559E-1,-1.2631949E0,-9.357772E-1,-7.069031E-1,-4.2553702E-1,-2.793854E-1,6.1080087E-2,1.5108931E-1,4.5538574E-1,8.263032E-1,5.6406343E-1,1.0848047E0,1.4631476E0,1.9017539E0,2.3880768E-1,-1.8483818E0,-1.4264517E0,-2.1882123E-1,4.576842E-1,-1.4932097E0,-1.1728086E0,-8.5667753E-1,-1.2416162E0,-7.350912E-1,8.9808874E-4,-5.309038E-1,-2.4887268E-1,3.2354933E-1,-3.208785E-1,2.8102077E-4,4.2181495E-1,6.8440214E-2,3.6640266E-1,1.8382937E-1,5.17306E-1,7.742203E-1,1.1937591E0,4.1839367E-1,6.7654836E-1,1.2085975E0,9.2045206E-1,1.3230723E0,1.6681753E0,2.1489862E-1,1.7909676E0,-1.443717E-1,-2.0356677E-1,-1.2493535E-1,-1.6610812E-1,-3.4089994E-2,-3.8236808E-3,1.0166979E-2,5.8485653E-2,-1.946381E-2,-1.5174775E-1,-1.346293E-1,-1.0791075E-1,1.3646625E-1,-8.769433E-2,-1.3015312E-1,-1.7010212E-2,-8.221556E-2,-5.9458215E-2,-1.3800812E-2,7.3959352E-3,-4.5770057E-2,-8.0462925E-2,-4.339219E-2,-1.3560972E-2,1.01381086E-1,2.0425053E-2,-4.717985E-2,-2.3757583E-2,-1.5162194E-2,1.15447445E-2,3.2898139E-3,4.589557E-2,-7.981274E-3,1.9204637E-2,5.73016E-2,2.4881689E-2,4.0303703E-2,2.35488E-3,4.7180675E-2,8.4098265E-2,9.7500324E-2,6.6822864E-2,7.5957544E-2,1.3023083E-1,3.5585485E-2,7.26071E-2,1.1135548E-1,6.357235E-2,1.4236838E-1,1.1510914E-1,1.021597E-1,7.3648125E-2,1.23553745E-1,1.6212006E-1,3.7698653E-2,1.674311E-1,1.0617558E-1,1.8173318E-1],"categories":[],"categories_nodes":[],"categories_segments":[],"categories_sizes":[],"default_left":[0,0,0,0,0,0,0,0,0,0,0,0,0,0,0,0,0,0,0,0,0,0,0,0,0,0,0,0,0,0,0,0,0,0,0,0,0,0,0,0,0,0,0,0,0,0,0,0,0,0,0,0,0,0,0,0,0,0,0,0,0,0,0,0,0,0,0,0,0,0,0,0,0,0,0,0,0,0,0,0,0,0,0,0,0,0,0,0,0,0,0,0,0,0,0,0,0,0,0,0,0,0,0,0,0,0,0,0,0,0,0,0,0,0,0,0,0,0,0],"id":7,"left_children":[1,3,5,7,9,11,13,15,17,19,21,23,25,27,29,31,33,35,37,39,41,43,45,47,49,51,53,55,57,59,-1,61,63,65,67,69,71,73,75,77,79,81,83,85,87,89,91,93,95,97,99,101,103,105,107,109,111,113,115,-1,117,-1,-1,-1,-1,-1,-1,-1,-1,-1,-1,-1,-1,-1,-1,-1,-1,-1,-1,-1,-1,-1,-1,-1,-1,-1,-1,-1,-1,-1,-1,-1,-1,-1,-1,-1,-1,-1,-1,-1,-1,-1,-1,-1,-1,-1,-1,-1,-1,-1,-1,-1,-1,-1,-1,-1,-1,-1,-1],"loss_changes":[6.228801E3,9.3150415E2,1.0515557E3,1.8609058E2,9.462442E1,1.6275519E2,2.4579004E2,5.0105957E1,2.7245117E1,2.3891083E1,2.6518894E1,4.064839E1,2.3284973E1,3.6805176E1,1.8605225E1,4.07688E1,1.188487E0,5.961914E0,2.1095886E1,1.4066528E1,9.9383545E0,2.166903E1,6.8427725E0,2.2059076E1,1.1355804E1,1.3697327E1,1.0072662E1,1.7300415E1,8.67749E0,3.409607E0,0E0,3.4803467E1,1.7828308E1,4.7196627E-1,7.6363325E-2,2.887497E0,2.9525146E0,3.410437E1,1.1719757E1,7.805359E0,2.9436955E-1,6.4044266E0,4.216837E0,4.4043813E0,1.0033554E1,4.705929E0,6.3490963E-1,1.6471159E1,8.214832E0,4.487754E0,7.7620087E0,1.3649536E1,3.393921E0,5.090843E0,5.6255493E0,4.706421E0,6.560486E0,3.999176E0,5.571594E-1,0E0,1.7039795E0,0E0,0E0,0E0,0E0,0E0,0E0,0E0,0E0,0E0,0E0,0E0,0E0,0E0,0E0,0E0,0E0,0E0,0E0,0E0,0E0,0E0,0E0,0E0,0E0,0E0,0E0,0E0,0E0,0E0,0E0,0E0,0E0,0E0,0E0,0E0,0E0,0E0,0E0,0E0,0E0,0E0,0E0,0E0,0E0,0E0,0E0,0E0,0E0,0E0,0E0,0E0,0E0,0E0,0E0,0E0,0E0,0E0,0E0],"parents":[2147483647,0,0,1,1,2,2,3,3,4,4,5,5,6,6,7,7,8,8,9,9,10,10,11,11,12,12,13,13,14,14,15,15,16,16,17,17,18,18,19,19,20,20,21,21,22,22,23,23,24,24,25,25,26,26,27,27,28,28,29,29,31,31,32,32,33,33,34,34,35,35,36,36,37,37,38,38,39,39,40,40,41,41,42,42,43,43,44,44,45,45,46,46,47,47,48,48,49,49,50,50,51,51,52,52,53,53,54,54,55,55,56,56,57,57,58,58,60,60],"right_children":[2,4,6,8,10,12,14,16,18,20,22,24,26,28,30,32,34,36,38,40,42,44,46,48,50,52,54,56,58,60,-1,62,64,66,68,70,72,74,76,78,80,82,84,86,88,90,92,94,96,98,100,102,104,106,108,110,112,114,116,-1,118,-1,-1,-1,-1,-1,-1,-1,-1,-1,-1,-1,-1,-1,-1,-1,-1,-1,-1,-1,-1,-1,-1,-1,-1,-1,-1,-1,-1,-1,-1,-1,-1,-1,-1,-1,-1,-1,-1,-1,-1,-1,-1,-1,-1,-1,-1,-1,-1,-1,-1,-1,-1,-1,-1,-1,-1,-1,-1],"split_conditions":[6.154858E0,4.3438053E0,8.14613E0,3.0910425E0,5.3565865E0,7.198931E0,9.778378E0,2.7725887E0,6.705639E0,7.345365E0,7.454141E0,3.533862E-1,8.8007785E-2,9.071538E0,1.069989E1,2.3978953E0,3.9512436E0,5.908083E0,2.0794415E0,9.941032E-1,-3.667991E-2,-3.4587678E-1,8.091627E0,7.4211774E0,3.7818775E-1,7.795235E0,7.577634E0,1.2874712E-1,8.831638E-2,-3.0926684E-1,2.3880768E-1,3.2585204E-1,-3.3969408E-1,6.745407E-1,4.248495E0,1.9788675E-2,-4.748198E-2,2.818419E-1,7.9610214E0,5.0172796E0,6.385748E-2,-3.3303756E-2,2.557695E-1,3.8269246E-1,6.6541524E0,1.9114666E-1,2.3036724E-1,6.6227365E0,7.404274E-2,2.02E3,7.9423623E0,-2.0656788E-1,-1.2681346E-1,1.1138647E0,-1.789717E-1,-5.68251E-1,-1.065027E0,7.4854918E0,3.035942E-1,2.1489862E-1,5.398163E0,-1.443717E-1,-2.0356677E-1,-1.2493535E-1,-1.6610812E-1,-3.4089994E-2,-3.8236808E-3,1.0166979E-2,5.8485653E-2,-1.946381E-2,-1.5174775E-1,-1.346293E-1,-1.0791075E-1,1.3646625E-1,-8.769433E-2,-1.3015312E-1,-1.7010212E-2,-8.221556E-2,-5.9458215E-2,-1.3800812E-2,7.3959352E-3,-4.5770057E-2,-8.0462925E-2,-4.339219E-2,-1.3560972E-2,1.01381086E-1,2.0425053E-2,-4.717985E-2,-2.3757583E-2,-1.5162194E-2,1.15447445E-2,3.2898139E-3,4.589557E-2,-7.981274E-3,1.9204637E-2,5.73016E-2,2.4881689E-2,4.0303703E-2,2.35488E-3,4.7180675E-2,8.4098265E-2,9.7500324E-2,6.6822864E-2,7.5957544E-2,1.3023083E-1,3.5585485E-2,7.26071E-2,1.1135548E-1,6.357235E-2,1.4236838E-1,1.1510914E-1,1.021597E-1,7.3648125E-2,1.23553745E-1,1.6212006E-1,3.7698653E-2,1.674311E-1,1.0617558E-1,1.8173318E-1],"split_indices":[0,0,0,0,0,0,0,1,2,2,2,37,67,0,0,0,1,2,1,69,53,105,2,2,28,2,0,67,77,105,0,96,6,102,1,60,58,93,2,0,32,61,79,54,2,81,48,0,55,3,2,34,47,100,52,70,17,2,38,0,2,0,0,0,0,0,0,0,0,0,0,0,0,0,0,0,0,0,0,0,0,0,0,0,0,0,0,0,0,0,0,0,0,0,0,0,0,0,0,0,0,0,0,0,0,0,0,0,0,0,0,0,0,0,0,0,0,0,0],"split_type":[0,0,0,0,0,0,0,0,0,0,0,0,0,0,0,0,0,0,0,0,0,0,0,0,0,0,0,0,0,0,0,0,0,0,0,0,0,0,0,0,0,0,0,0,0,0,0,0,0,0,0,0,0,0,0,0,0,0,0,0,0,0,0,0,0,0,0,0,0,0,0,0,0,0,0,0,0,0,0,0,0,0,0,0,0,0,0,0,0,0,0,0,0,0,0,0,0,0,0,0,0,0,0,0,0,0,0,0,0,0,0,0,0,0,0,0,0,0,0],"sum_hessian":[9.711E3,4.699E3,5.012E3,2.283E3,2.416E3,3.314E3,1.698E3,9.98E2,1.285E3,1.244E3,1.172E3,1.92E3,1.394E3,1.282E3,4.16E2,9.75E2,2.3E1,3.7E2,9.15E2,7.04E2,5.4E2,8.61E2,3.11E2,1.24E3,6.8E2,7.63E2,6.31E2,9.04E2,3.78E2,2.64E2,1.52E2,4.97E2,4.78E2,2.1E1,2E0,1E2,2.7E2,7.3E2,1.85E2,6.77E2,2.7E1,3.37E2,2.03E2,5.5E1,8.06E2,2.67E2,4.4E1,8.97E2,3.43E2,1.27E2,5.53E2,6.71E2,9.2E1,2.77E2,3.54E2,5.12E2,3.92E2,2.29E2,1.49E2,7.6E1,1.88E2,1.6E2,3.37E2,2.76E2,2.02E2,1.2E1,9E0,1E0,1E0,2E0,9.8E1,9E1,1.8E2,6E0,7.24E2,1.75E2,1E1,4.15E2,2.62E2,9E0,1.8E1,2.68E2,6.9E1,7.6E1,1.27E2,7E0,4.8E1,2.85E2,5.21E2,1.15E2,1.52E2,4E0,4E1,4.08E2,4.89E2,1.23E2,2.2E2,5.3E1,7.4E1,4.87E2,6.6E1,2.29E2,4.42E2,2E1,7.2E1,2.32E2,4.5E1,2.8E1,3.26E2,1.03E2,4.09E2,2.5E2,1.42E2,1.81E2,4.8E1,1E0,1.48E2,8E0,1.8E2],"tree_param":{"num_deleted":"0","num_feature":"106","num_nodes":"119","size_leaf_vector":"1"}},{"base_weights":[8.353614E-4,-8.060487E-1,6.471803E-1,-1.2927064E0,-5.106789E-1,2.8306916E-1,1.1502813E0,-1.5832043E0,-1.1334548E0,-7.4482983E-1,-3.3745843E-1,6.824397E-2,4.3969953E-1,9.2837256E-1,1.7082685E0,-1.6719288E0,-2.4791406E-1,-1.3401043E0,-1.0159618E0,-9.559266E-1,-6.7392486E-1,-3.9795554E-1,-2.7689911E-2,-4.251871E-2,2.4112475E-1,5.9419674E-1,3.3733687E-1,8.1476617E-1,1.0845526E0,1.4478061E0,1.9939557E0,-1.8346176E0,-1.3201123E0,-1.168518E-1,-1.619219E-1,-8.3517075E-2,-1.3566362E0,-9.50626E-1,-1.485774E0,-1.0807447E0,-8.092342E-1,-4.5554167E-1,-7.549586E-1,8.6285725E-2,-4.2403057E-1,-1.2670174E-1,2.5626352E-1,-1.13415815E-1,1.8172069E-1,1.790306E-1,5.6758606E-1,2.5698936E-1,6.500725E-1,4.65555E-1,2.3808086E-1,9.1996807E-1,6.9395137E-1,1.259812E0,9.6170264E-1,1.2468134E0,1.5503913E0,1.9167086E0,2.455869E-1,-1.9855219E-1,-1.5487549E-1,3.1245062E-1,-1.3899598E-1,-2.2063976E-2,3.483014E-2,1.9367409E-1,-8.749168E-2,-1.4983071E-1,-1.2238101E-1,-9.743376E-2,4.0328342E-2,-1.5220334E-1,-3.5687448E-3,-1.300078E-1,-9.813798E-2,-8.269039E-2,7.792492E-2,-2.7907947E-2,-8.071505E-2,-6.801077E-2,-1.0141782E-1,2.4790193E-3,2.0724955E-1,-5.1333796E-2,-2.9796273E-2,-4.019096E-2,-5.93201E-3,2.930455E-2,-1.6039722E-2,-2.0528154E-2,-4.1464096E-4,3.6634166E-2,3.7407044E-3,5.1667966E-2,7.800699E-3,6.1416425E-2,1.2154516E-2,-1.08665135E-2,3.400023E-2,5.6263804E-2,7.8142665E-2,3.8142923E-2,8.163559E-2,1.5619218E-2,3.8105436E-2,8.809527E-2,1.22033074E-1,8.0726735E-2,6.015971E-2,4.0242977E-2,1.2709002E-1,8.579704E-2,1.1430388E-1,1.4953184E-1,1.17576815E-1,3.909087E-2,1.5538849E-1,1.9815488E-1,1.5252581E-1],"categories":[],"categories_nodes":[],"categories_segments":[],"categories_sizes":[],"default_left":[0,0,0,0,0,0,0,0,0,0,0,0,0,0,0,0,0,0,0,0,0,0,0,0,0,0,0,0,0,0,0,0,0,0,0,0,0,0,0,0,0,0,0,0,0,0,0,0,0,0,0,0,0,0,0,0,0,0,0,0,0,0,0,0,0,0,0,0,0,0,0,0,0,0,0,0,0,0,0,0,0,0,0,0,0,0,0,0,0,0,0,0,0,0,0,0,0,0,0,0,0,0,0,0,0,0,0,0,0,0,0,0,0,0,0,0,0,0,0,0,0,0,0],"id":8,"left_children":[1,3,5,7,9,11,13,15,17,19,21,23,25,27,29,31,33,35,37,39,41,43,45,47,49,51,53,55,57,59,61,63,65,-1,67,69,71,73,75,77,79,81,83,85,87,89,91,93,95,97,99,101,103,105,107,109,111,113,115,117,119,121,-1,-1,-1,-1,-1,-1,-1,-1,-1,-1,-1,-1,-1,-1,-1,-1,-1,-1,-1,-1,-1,-1,-1,-1,-1,-1,-1,-1,-1,-1,-1,-1,-1,-1,-1,-1,-1,-1,-1,-1,-1,-1,-1,-1,-1,-1,-1,-1,-1,-1,-1,-1,-1,-1,-1,-1,-1,-1,-1,-1,-1],"loss_changes":[5.0655767E3,6.2031396E2,9.8758936E2,7.365918E1,1.0885431E2,1.0528868E2,2.7874756E2,6.770752E1,2.4302246E1,1.6463928E1,2.8998657E1,2.5305737E1,2.8424255E1,2.7895508E1,4.4959106E1,2.8428589E1,2.739886E0,7.7807007E0,1.9399109E1,4.34375E0,1.485733E1,1.6388046E1,7.173615E0,1.2834336E1,1.0358391E1,1.3399002E1,1.3773682E1,1.1347107E1,1.342926E1,5.0773315E0,6.1401367E0,1.2713501E1,5.836032E1,0E0,1.1254218E0,1.1287477E1,5.2229614E0,1.9590698E1,4.20459E0,2.01503E0,4.4335403E0,1.4355473E1,1.1437012E1,8.132206E0,1.3684097E1,3.480967E0,1.0584936E0,6.1525116E0,5.1551003E0,1.4797773E1,1.6289654E0,3.1937675E0,6.6464844E0,1.3706543E1,7.164261E0,4.796051E0,4.1504364E0,2.1219482E0,6.618683E0,3.6045837E-1,2.8778076E-1,3.7037964E0,0E0,0E0,0E0,0E0,0E0,0E0,0E0,0E0,0E0,0E0,0E0,0E0,0E0,0E0,0E0,0E0,0E0,0E0,0E0,0E0,0E0,0E0,0E0,0E0,0E0,0E0,0E0,0E0,0E0,0E0,0E0,0E0,0E0,0E0,0E0,0E0,0E0,0E0,0E0,0E0,0E0,0E0,0E0,0E0,0E0,0E0,0E0,0E0,0E0,0E0,0E0,0E0,0E0,0E0,0E0,0E0,0E0,0E0,0E0,0E0,0E0],"parents":[2147483647,0,0,1,1,2,2,3,3,4,4,5,5,6,6,7,7,8,8,9,9,10,10,11,11,12,12,13,13,14,14,15,15,16,16,17,17,18,18,19,19,20,20,21,21,22,22,23,23,24,24,25,25,26,26,27,27,28,28,29,29,30,30,31,31,32,32,34,34,35,35,36,36,37,37,38,38,39,39,40,40,41,41,42,42,43,43,44,44,45,45,46,46,47,47,48,48,49,49,50,50,51,51,52,52,53,53,54,54,55,55,56,56,57,57,58,58,59,59,60,60,61,61],"right_children":[2,4,6,8,10,12,14,16,18,20,22,24,26,28,30,32,34,36,38,40,42,44,46,48,50,52,54,56,58,60,62,64,66,-1,68,70,72,74,76,78,80,82,84,86,88,90,92,94,96,98,100,102,104,106,108,110,112,114,116,118,120,122,-1,-1,-1,-1,-1,-1,-1,-1,-1,-1,-1,-1,-1,-1,-1,-1,-1,-1,-1,-1,-1,-1,-1,-1,-1,-1,-1,-1,-1,-1,-1,-1,-1,-1,-1,-1,-1,-1,-1,-1,-1,-1,-1,-1,-1,-1,-1,-1,-1,-1,-1,-1,-1,-1,-1,-1,-1,-1,-1,-1,-1],"split_conditions":[5.9053617E0,3.7612002E0,7.711549E0,2.4849067E0,4.762174E0,6.675823E0,9.296243E0,1.9459101E0,6.7753663E0,6.664409E0,7.704361E0,3.060813E-1,-3.727622E-1,8.480529E0,1.0084058E1,1.1952752E-1,-3.3522705E-3,-2.0826705E-1,1.9459101E0,-6.289699E-1,-1.628319E-2,-9.707152E-2,8.091627E0,7.4211774E0,7.795235E0,6.6080008E0,1.3899495E-1,8.9093626E-2,-3.1028637E-1,1.9897419E-1,1.1424488E1,2.0794415E0,-1.7918581E-1,-1.168518E-1,3.9318256E0,2E0,3.1354942E0,-6.78503E-3,7.9610214E0,1.0986123E0,2.1400025E-1,-3.18379E-2,2.5649493E0,-1.1951157E-1,5.4510384E0,2.309384E-1,-8.449727E-2,6.3332796E0,-3.2872036E-1,-1.22241646E-1,-3.9458293E-1,3.2580965E0,-5.0093716E-1,7.795235E0,7.2800083E0,7.795235E0,-2.2525299E-1,4.521734E-3,4.2849067E-1,6.766882E-2,2.984318E-1,-1.7017625E-1,2.455869E-1,-1.9855219E-1,-1.5487549E-1,3.1245062E-1,-1.3899598E-1,-2.2063976E-2,3.483014E-2,1.9367409E-1,-8.749168E-2,-1.4983071E-1,-1.2238101E-1,-9.743376E-2,4.0328342E-2,-1.5220334E-1,-3.5687448E-3,-1.300078E-1,-9.813798E-2,-8.269039E-2,7.792492E-2,-2.7907947E-2,-8.071505E-2,-6.801077E-2,-1.0141782E-1,2.4790193E-3,2.0724955E-1,-5.1333796E-2,-2.9796273E-2,-4.019096E-2,-5.93201E-3,2.930455E-2,-1.6039722E-2,-2.0528154E-2,-4.1464096E-4,3.6634166E-2,3.7407044E-3,5.1667966E-2,7.800699E-3,6.1416425E-2,1.2154516E-2,-1.08665135E-2,3.400023E-2,5.6263804E-2,7.8142665E-2,3.8142923E-2,8.163559E-2,1.5619218E-2,3.8105436E-2,8.809527E-2,1.22033074E-1,8.0726735E-2,6.015971E-2,4.0242977E-2,1.2709002E-1,8.579704E-2,1.1430388E-1,1.4953184E-1,1.17576815E-1,3.909087E-2,1.5538849E-1,1.9815488E-1,1.5252581E-1],"split_indices":[0,0,0,0,0,0,0,1,2,2,2,37,90,0,0,18,18,16,1,33,91,91,2,2,2,2,55,67,103,12,0,0,16,0,1,5,0,105,2,1,24,19,1,105,0,49,9,0,29,64,27,1,98,2,0,2,72,50,92,91,73,72,0,0,0,0,0,0,0,0,0,0,0,0,0,0,0,0,0,0,0,0,0,0,0,0,0,0,0,0,0,0,0,0,0,0,0,0,0,0,0,0,0,0,0,0,0,0,0,0,0,0,0,0,0,0,0,0,0,0,0,0,0],"split_type":[0,0,0,0,0,0,0,0,0,0,0,0,0,0,0,0,0,0,0,0,0,0,0,0,0,0,0,0,0,0,0,0,0,0,0,0,0,0,0,0,0,0,0,0,0,0,0,0,0,0,0,0,0,0,0,0,0,0,0,0,0,0,0,0,0,0,0,0,0,0,0,0,0,0,0,0,0,0,0,0,0,0,0,0,0,0,0,0,0,0,0,0,0,0,0,0,0,0,0,0,0,0,0,0,0,0,0,0,0,0,0,0,0,0,0,0,0,0,0,0,0,0,0],"sum_hessian":[9.711E3,4.319E3,5.392E3,1.63E3,2.689E3,3.129E3,2.263E3,5.74E2,1.056E3,1.142E3,1.547E3,1.32E3,1.809E3,1.621E3,6.42E2,5.38E2,3.6E1,3.79E2,6.77E2,2.84E2,8.58E2,1.294E3,2.53E2,8.05E2,5.15E2,7.19E2,1.09E3,9.42E2,6.79E2,3.39E2,3.03E2,3.65E2,1.73E2,2E0,3.4E1,5E0,3.74E2,5.97E2,8E1,1.5E2,1.34E2,2.34E2,6.24E2,6.6E1,1.228E3,1.88E2,6.5E1,6.12E2,1.93E2,4.34E2,8.1E1,1.03E2,6.16E2,4.74E2,6.16E2,5E2,4.42E2,2.76E2,4.03E2,1.19E2,2.2E2,2.64E2,3.9E1,2.35E2,1.3E2,2E0,1.71E2,3.1E1,3E0,1E0,4E0,1.76E2,1.98E2,5.87E2,1E1,7.8E1,2E0,4.3E1,1.07E2,1.33E2,1E0,1.57E2,7.7E1,4.87E2,1.37E2,6.5E1,1E0,7.17E2,5.11E2,3.6E1,1.52E2,6E1,5E0,3.32E2,2.8E2,8.4E1,1.09E2,9.9E1,3.35E2,7.3E1,8E0,1.9E1,8.4E1,3.73E2,2.43E2,3.84E2,9E1,3.93E2,2.23E2,4.46E2,5.4E1,1.95E2,2.47E2,4E0,2.72E2,2.6E2,1.43E2,2.2E1,9.7E1,1E0,2.19E2,2.23E2,4.1E1],"tree_param":{"num_deleted":"0","num_feature":"106","num_nodes":"123","size_leaf_vector":"1"}},{"base_weights":[8.73418E-4,-7.256934E-1,5.8288115E-1,-1.1249313E0,-4.332148E-1,3.0378136E-1,1.1172309E0,-1.3751065E0,-9.472867E-1,-5.922796E-1,-2.5198942E-1,1.3123584E-1,5.1720184E-1,9.3846154E-1,1.6632632E0,-1.4287884E0,-1.931318E-1,-9.712571E-1,-1.6387767E-1,-6.421613E-1,-3.3951405E-1,-3.4839255E-1,-7.623055E-2,2.5002214E-1,-7.1975647E-4,6.316615E-1,3.9660236E-1,8.343374E-1,1.1286814E0,1.4846941E0,1.9023079E0,-1.5660229E0,-1.1058103E0,-3.4642667E-1,5.0605636E-2,-1.0524486E0,-7.760393E-1,2.5172982E-1,-2.655582E-1,-7.336279E-1,-5.322894E-1,-4.48007E-1,-9.907917E-2,-3.944939E-1,3.9517686E-2,-1.2350819E-1,2.4211645E-1,5.174333E-1,2.0919947E-1,-4.1787695E-2,3.738098E-1,5.860237E-1,9.396764E-1,2.9890627E-1,5.380106E-1,9.214664E-1,6.837868E-1,9.764152E-1,1.2613045E0,1.6431588E-1,1.363439E0,1.6019752E0,2.0060446E0,-1.7878112E-1,-1.3663636E-1,2.0100999E-1,-1.1731299E-1,-1.4601603E-2,-5.1534396E-2,-5.994892E-3,4.7595534E-2,7.269965E-3,-1.07292175E-1,-7.8971855E-2,1.7185865E-1,-8.6034136E-4,3.5758384E-2,-3.5431832E-2,-4.866929E-3,-8.511823E-2,-6.399171E-2,-5.796651E-2,-9.73283E-3,-5.2424658E-2,-2.0549236E-2,5.3552818E-2,-1.7809154E-2,-6.1308295E-2,-3.580104E-2,-4.445874E-2,2.3915568E-2,-1.54019585E-2,2.607635E-2,1.3311693E-2,3.9461043E-2,8.01607E-2,4.148499E-2,1.2781291E-2,3.9973807E-2,-1.6453234E-2,4.6402803E-3,3.1830233E-2,7.971413E-2,5.028845E-2,7.965668E-2,5.3892113E-2,1.0418703E-1,4.6438724E-2,2.1653727E-2,4.8469942E-2,9.028616E-2,1.0875189E-1,8.7054275E-2,7.958155E-2,5.172831E-2,9.007024E-2,1.264624E-1,1.2652658E-1,1.1965132E-2,1.270424E-1,1.5713312E-1,1.7027839E-1,1.19232334E-1,5.1588822E-2,2.013156E-1],"categories":[],"categories_nodes":[],"categories_segments":[],"categories_sizes":[],"default_left":[0,0,0,0,0,0,0,0,0,0,0,0,0,0,0,0,0,0,0,0,0,0,0,0,0,0,0,0,0,0,0,0,0,0,0,0,0,0,0,0,0,0,0,0,0,0,0,0,0,0,0,0,0,0,0,0,0,0,0,0,0,0,0,0,0,0,0,0,0,0,0,0,0,0,0,0,0,0,0,0,0,0,0,0,0,0,0,0,0,0,0,0,0,0,0,0,0,0,0,0,0,0,0,0,0,0,0,0,0,0,0,0,0,0,0,0,0,0,0,0,0,0,0,0,0],"id":9,"left_children":[1,3,5,7,9,11,13,15,17,19,21,23,25,27,29,31,33,35,37,39,41,43,45,47,49,51,53,55,57,59,61,63,65,67,69,71,73,75,77,79,81,83,85,87,89,91,93,95,97,99,101,103,105,107,109,111,113,115,117,-1,119,121,123,-1,-1,-1,-1,-1,-1,-1,-1,-1,-1,-1,-1,-1,-1,-1,-1,-1,-1,-1,-1,-1,-1,-1,-1,-1,-1,-1,-1,-1,-1,-1,-1,-1,-1,-1,-1,-1,-1,-1,-1,-1,-1,-1,-1,-1,-1,-1,-1,-1,-1,-1,-1,-1,-1,-1,-1,-1,-1,-1,-1,-1,-1],"loss_changes":[4.1073125E3,5.0395288E2,8.039557E2,7.984888E1,7.177304E1,1.30439E2,1.790249E2,4.769275E1,1.9952698E1,1.6525879E1,1.9763687E1,3.0737911E1,2.1614685E1,2.6708008E1,1.6597656E1,3.0314209E1,1.2878969E0,1.5651428E1,1.4614024E0,1.0744476E1,5.7205048E0,1.3499527E1,6.275943E0,1.11575165E1,1.4320099E1,1.084967E1,1.0532013E1,1.1254211E1,8.683716E0,2.8515625E0,2.7371216E0,1.99198E1,4.829605E1,6.356609E-1,6.8687385E-1,1.6916748E1,1.1901703E1,1.959776E-1,5.025346E-1,6.0870056E0,1.0391144E1,2.7026348E0,3.6053014E0,5.155594E0,7.9346333E0,4.2844906E0,8.450465E-1,3.6320648E0,1.3858936E1,9.089734E0,1.9080906E0,1.201001E1,3.656845E0,6.1694756E0,5.689331E0,3.8816528E0,5.8558044E0,3.9452515E0,1.0198975E0,0E0,1.0203247E0,1.9973755E-1,4.2382812E-1,0E0,0E0,0E0,0E0,0E0,0E0,0E0,0E0,0E0,0E0,0E0,0E0,0E0,0E0,0E0,0E0,0E0,0E0,0E0,0E0,0E0,0E0,0E0,0E0,0E0,0E0,0E0,0E0,0E0,0E0,0E0,0E0,0E0,0E0,0E0,0E0,0E0,0E0,0E0,0E0,0E0,0E0,0E0,0E0,0E0,0E0,0E0,0E0,0E0,0E0,0E0,0E0,0E0,0E0,0E0,0E0,0E0,0E0,0E0,0E0,0E0,0E0],"parents":[2147483647,0,0,1,1,2,2,3,3,4,4,5,5,6,6,7,7,8,8,9,9,10,10,11,11,12,12,13,13,14,14,15,15,16,16,17,17,18,18,19,19,20,20,21,21,22,22,23,23,24,24,25,25,26,26,27,27,28,28,29,29,30,30,31,31,32,32,33,33,34,34,35,35,36,36,37,37,38,38,39,39,40,40,41,41,42,42,43,43,44,44,45,45,46,46,47,47,48,48,49,49,50,50,51,51,52,52,53,53,54,54,55,55,56,56,57,57,58,58,60,60,61,61,62,62],"right_children":[2,4,6,8,10,12,14,16,18,20,22,24,26,28,30,32,34,36,38,40,42,44,46,48,50,52,54,56,58,60,62,64,66,68,70,72,74,76,78,80,82,84,86,88,90,92,94,96,98,100,102,104,106,108,110,112,114,116,118,-1,120,122,124,-1,-1,-1,-1,-1,-1,-1,-1,-1,-1,-1,-1,-1,-1,-1,-1,-1,-1,-1,-1,-1,-1,-1,-1,-1,-1,-1,-1,-1,-1,-1,-1,-1,-1,-1,-1,-1,-1,-1,-1,-1,-1,-1,-1,-1,-1,-1,-1,-1,-1,-1,-1,-1,-1,-1,-1,-1,-1,-1,-1,-1,-1],"split_conditions":[5.9053617E0,3.9512436E0,8.009695E0,2.7725887E0,5.081404E0,7.005789E0,9.67143E0,2.3025851E0,8.066208E0,7.695758E0,7.3466554E0,1.3539211E-2,7.351764E-2,8.878776E0,1.0486541E1,1.1952752E-1,6.745407E-1,8.42294E-1,-1.8165639E-1,4.336807E-1,3.029438E-1,1.177472E-1,8.091627E0,-1.5496896E-1,7.794411E0,7.795235E0,7.577634E0,-2.2607337E-1,4.1424048E-1,-2.770718E-1,7.0457764E0,2.0794415E0,1.0091211E-1,2.8815717E-1,4.6656873E-2,2.818419E-1,1.1791613E-1,6E0,1.3862944E0,4.477337E0,-3.7505007E-1,4.7957907E0,3.6250943E-1,1.9459101E0,4.160087E-1,1.1948352E0,5.525453E0,2.3978953E0,7.5432734E0,6.350886E0,-8.060111E-2,2.597592E-1,-1.21278696E-1,-2.3524126E-1,1.1300209E-1,-1.5202041E-1,1.11375965E-1,7.398786E0,3.6028933E-2,1.6431588E-1,7.4389715E0,-1.6686364E-1,1.5759085E-1,-1.7878112E-1,-1.3663636E-1,2.0100999E-1,-1.1731299E-1,-1.4601603E-2,-5.1534396E-2,-5.994892E-3,4.7595534E-2,7.269965E-3,-1.07292175E-1,-7.8971855E-2,1.7185865E-1,-8.6034136E-4,3.5758384E-2,-3.5431832E-2,-4.866929E-3,-8.511823E-2,-6.399171E-2,-5.796651E-2,-9.73283E-3,-5.2424658E-2,-2.0549236E-2,5.3552818E-2,-1.7809154E-2,-6.1308295E-2,-3.580104E-2,-4.445874E-2,2.3915568E-2,-1.54019585E-2,2.607635E-2,1.3311693E-2,3.9461043E-2,8.01607E-2,4.148499E-2,1.2781291E-2,3.9973807E-2,-1.6453234E-2,4.6402803E-3,3.1830233E-2,7.971413E-2,5.028845E-2,7.965668E-2,5.3892113E-2,1.0418703E-1,4.6438724E-2,2.1653727E-2,4.8469942E-2,9.028616E-2,1.0875189E-1,8.7054275E-2,7.958155E-2,5.172831E-2,9.007024E-2,1.264624E-1,1.2652658E-1,1.1965132E-2,1.270424E-1,1.5713312E-1,1.7027839E-1,1.19232334E-1,5.1588822E-2,2.013156E-1],"split_indices":[0,0,0,0,0,0,0,1,2,2,2,10,67,0,0,18,102,102,61,68,79,77,2,64,2,2,0,72,92,105,2,0,76,56,10,93,9,5,1,0,15,0,82,1,28,100,0,1,2,0,88,55,47,105,36,64,91,2,61,0,2,72,7,0,0,0,0,0,0,0,0,0,0,0,0,0,0,0,0,0,0,0,0,0,0,0,0,0,0,0,0,0,0,0,0,0,0,0,0,0,0,0,0,0,0,0,0,0,0,0,0,0,0,0,0,0,0,0,0,0,0,0,0,0,0],"split_type":[0,0,0,0,0,0,0,0,0,0,0,0,0,0,0,0,0,0,0,0,0,0,0,0,0,0,0,0,0,0,0,0,0,0,0,0,0,0,0,0,0,0,0,0,0,0,0,0,0,0,0,0,0,0,0,0,0,0,0,0,0,0,0,0,0,0,0,0,0,0,0,0,0,0,0,0,0,0,0,0,0,0,0,0,0,0,0,0,0,0,0,0,0,0,0,0,0,0,0,0,0,0,0,0,0,0,0,0,0,0,0,0,0,0,0,0,0,0,0,0,0,0,0,0,0],"sum_hessian":[9.711E3,4.319E3,5.392E3,1.825E3,2.494E3,3.543E3,1.849E3,7.55E2,1.07E3,1.327E3,1.167E3,1.96E3,1.583E3,1.395E3,4.54E2,7.22E2,3.3E1,1.038E3,3.2E1,1.107E3,2.2E2,7.53E2,4.14E2,1.031E3,9.29E2,8.1E2,7.73E2,9.05E2,4.9E2,2.64E2,1.9E2,5.04E2,2.18E2,2E1,1.3E1,7.3E2,3.08E2,6E0,2.6E1,6.01E2,5.06E2,1.51E2,6.9E1,6.73E2,8E1,3.61E2,5.3E1,1.35E2,8.96E2,8.38E2,9.1E1,7.08E2,1.02E2,4.59E2,3.14E2,5.7E2,3.35E2,2.32E2,2.58E2,1.09E2,1.55E2,5.3E1,1.37E2,2.35E2,2.69E2,4E0,2.14E2,1E1,1E1,1.1E1,2E0,1.3E1,7.17E2,3.07E2,1E0,2E0,4E0,1.8E1,8E0,2.63E2,3.38E2,4.56E2,5E1,1.14E2,3.7E1,7E0,6.2E1,9.4E1,5.79E2,2.3E1,5.7E1,3.35E2,2.6E1,3.2E1,2.1E1,3.4E1,1.01E2,6.29E2,2.67E2,3.5E2,4.88E2,8.2E1,9E0,5.1E2,1.98E2,2.2E1,8E1,1.51E2,3.08E2,2.76E2,3.8E1,1.29E2,4.41E2,1.98E2,1.37E2,1.87E2,4.5E1,2.57E2,1E0,1.12E2,4.3E1,4E1,1.3E1,1E0,1.36E2],"tree_param":{"num_deleted":"0","num_feature":"106","num_nodes":"125","size_leaf_vector":"1"}},{"base_weights":[9.780455E-4,-5.675554E-1,6.04381E-1,-9.4038373E-1,-2.540501E-1,3.9103267E-1,1.1103643E0,-1.1417141E0,-7.1329373E-1,-3.9157575E-1,-7.148484E-2,2.3466595E-1,5.6947047E-1,9.4184303E-1,1.5605303E0,-9.589908E-1,-1.3075701E0,-1.0330918E0,-6.65535E-1,-4.6205437E-1,-2.0692895E-1,-2.1933877E-1,3.8575668E-2,1.2494884E-1,3.4411788E-1,7.4107426E-1,5.1359034E-1,8.548789E-1,1.1122442E0,1.4694937E0,1.8929983E0,1.905024E0,-9.7721493E-1,-1.4695754E0,-1.1514927E0,-1.1809993E0,-8.4881115E-1,-6.236831E-1,-1.0143421E0,-2.1322803E-1,-4.970581E-1,-3.573113E-1,-1.1826087E-1,-3.638611E-1,-1.1478719E-1,2.9066107E-1,-2.1383066E-2,2.9154167E-1,5.5933703E-2,3.1468216E-1,6.3638145E-1,2.2173811E-1,7.604395E-1,4.711898E-1,8.382033E-1,6.4508265E-1,9.275658E-1,1.0040311E0,1.2739308E0,1.3132654E0,1.5963993E0,1.2842518E0,1.9636339E-1,2.782199E-1,-3.6325075E-2,-1.4036375E-1,-8.196586E-2,-1.5304908E-1,-1.8578595E-2,-2.6214972E-2,-1.1788068E-1,-1.20851256E-1,-3.9738774E-2,-9.522616E-2,-4.7247794E-2,-4.880845E-2,-7.064506E-2,-1.1081076E-1,-4.9687844E-2,-6.2508516E-2,-1.138125E-2,-5.730101E-2,-3.9862987E-2,-4.8001483E-2,-1.0284733E-2,-1.6586047E-2,1.321611E-2,-5.1061433E-2,-2.3220329E-2,-5.8610407E-3,-3.6594693E-2,5.3669512E-2,1.0636061E-2,-1.2697594E-2,1.8703448E-2,1.7829945E-2,5.9474852E-2,2.5255118E-2,1.221712E-3,4.7511708E-2,2.4500066E-2,3.6566805E-2,7.527845E-2,5.0613143E-2,-9.037244E-3,2.1360002E-1,7.507658E-2,3.717922E-2,5.5246513E-2,9.809647E-2,6.617427E-2,4.956832E-2,7.8565456E-2,8.720604E-2,1.0933035E-1,9.061053E-2,1.1855393E-1,1.0654324E-1,1.3552678E-1,1.1631482E-1,1.5268461E-1,4.2654227E-2,1.6010162E-1,3.8306713E-2,1.3360636E-1],"categories":[],"categories_nodes":[],"categories_segments":[],"categories_sizes":[],"default_left":[0,0,0,0,0,0,0,0,0,0,0,0,0,0,0,0,0,0,0,0,0,0,0,0,0,0,0,0,0,0,0,0,0,0,0,0,0,0,0,0,0,0,0,0,0,0,0,0,0,0,0,0,0,0,0,0,0,0,0,0,0,0,0,0,0,0,0,0,0,0,0,0,0,0,0,0,0,0,0,0,0,0,0,0,0,0,0,0,0,0,0,0,0,0,0,0,0,0,0,0,0,0,0,0,0,0,0,0,0,0,0,0,0,0,0,0,0,0,0,0,0,0,0,0,0],"id":10,"left_children":[1,3,5,7,9,11,13,15,17,19,21,23,25,27,29,31,33,35,37,39,41,43,45,47,49,51,53,55,57,59,61,63,65,67,69,71,73,75,77,79,81,83,85,87,89,91,93,95,97,99,101,103,105,107,109,111,113,115,117,119,121,123,-1,-1,-1,-1,-1,-1,-1,-1,-1,-1,-1,-1,-1,-1,-1,-1,-1,-1,-1,-1,-1,-1,-1,-1,-1,-1,-1,-1,-1,-1,-1,-1,-1,-1,-1,-1,-1,-1,-1,-1,-1,-1,-1,-1,-1,-1,-1,-1,-1,-1,-1,-1,-1,-1,-1,-1,-1,-1,-1,-1,-1,-1,-1],"loss_changes":[3.332091E3,5.8429626E2,5.082296E2,1.0361035E2,6.821393E1,9.238849E1,1.0451013E2,3.5385742E1,1.5746338E1,2.0075546E1,1.9031456E1,2.1200485E1,1.4463562E1,1.4149475E1,8.689392E0,3.208197E1,1.4262817E1,2.7589417E0,1.3075104E1,9.657745E0,5.691412E0,7.498144E0,1.0148193E1,1.01589155E1,7.4133835E0,3.632965E0,1.5722412E1,9.756012E0,4.687256E0,3.8910522E0,8.321228E-1,8.969336E0,3.75484E1,2.364563E1,7.6100464E0,1.1151733E0,2.0806465E0,9.093872E0,4.252907E0,5.661155E0,7.1128387E0,4.9151897E0,3.2641559E0,3.9195652E0,4.0843716E0,5.7923174E0,1.197377E1,8.786932E0,5.3862576E0,8.89415E0,2.245678E0,1.3771725E0,3.2400513E0,8.180176E0,2.7265472E0,3.3488083E0,3.6646729E0,2.640625E0,8.1155396E-1,2.7447815E0,1.9207764E-1,1.8081665E-3,0E0,0E0,0E0,0E0,0E0,0E0,0E0,0E0,0E0,0E0,0E0,0E0,0E0,0E0,0E0,0E0,0E0,0E0,0E0,0E0,0E0,0E0,0E0,0E0,0E0,0E0,0E0,0E0,0E0,0E0,0E0,0E0,0E0,0E0,0E0,0E0,0E0,0E0,0E0,0E0,0E0,0E0,0E0,0E0,0E0,0E0,0E0,0E0,0E0,0E0,0E0,0E0,0E0,0E0,0E0,0E0,0E0,0E0,0E0,0E0,0E0,0E0,0E0],"parents":[2147483647,0,0,1,1,2,2,3,3,4,4,5,5,6,6,7,7,8,8,9,9,10,10,11,11,12,12,13,13,14,14,15,15,16,16,17,17,18,18,19,19,20,20,21,21,22,22,23,23,24,24,25,25,26,26,27,27,28,28,29,29,30,30,31,31,32,32,33,33,34,34,35,35,36,36,37,37,38,38,39,39,40,40,41,41,42,42,43,43,44,44,45,45,46,46,47,47,48,48,49,49,50,50,51,51,52,52,53,53,54,54,55,55,56,56,57,57,58,58,59,59,60,60,61,61],"right_children":[2,4,6,8,10,12,14,16,18,20,22,24,26,28,30,32,34,36,38,40,42,44,46,48,50,52,54,56,58,60,62,64,66,68,70,72,74,76,78,80,82,84,86,88,90,92,94,96,98,100,102,104,106,108,110,112,114,116,118,120,122,124,-1,-1,-1,-1,-1,-1,-1,-1,-1,-1,-1,-1,-1,-1,-1,-1,-1,-1,-1,-1,-1,-1,-1,-1,-1,-1,-1,-1,-1,-1,-1,-1,-1,-1,-1,-1,-1,-1,-1,-1,-1,-1,-1,-1,-1,-1,-1,-1,-1,-1,-1,-1,-1,-1,-1,-1,-1,-1,-1,-1,-1,-1,-1],"split_conditions":[6.3332796E0,4.3438053E0,8.409608E0,3.3322046E0,5.556828E0,7.2800083E0,9.89968E0,1.4864492E-1,6.2461066E0,7.513709E0,3.432558E-1,2.6258337E-1,-1.7560674E-1,9.185637E0,1.11242E1,-1.7918581E-1,2.4849067E0,1.3539211E-2,2.4849067E0,-4.6381496E-2,4.828314E0,6.7214255E0,-2.9368812E-1,1.2286133E-1,7.904335E0,9.277989E-1,7.830823E0,5.331943E-1,7.3172126E0,9.77491E-2,5.9506426E0,2.0794415E0,6.673298E0,2.1972246E0,-3.7999758E-1,5.559416E-1,-1.6631444E-1,-1.1690948E-1,-1.5338852E-2,2.592343E-1,5.081404E0,3.1739703E-1,8.091627E0,2.6390574E0,4.1743875E0,7.026427E0,7.4770384E0,7.7389235E0,-2.6326635E-1,-1.0228232E-1,2.6140246E-1,-1.3662422E-1,-6.942365E-2,7.711549E0,6.641276E-2,-1.0516688E-1,1.0316436E-1,8.992591E-2,-1.4098426E-2,7.409742E0,-4.1179675E-1,-2.5724614E-1,1.9636339E-1,2.782199E-1,-3.6325075E-2,-1.4036375E-1,-8.196586E-2,-1.5304908E-1,-1.8578595E-2,-2.6214972E-2,-1.1788068E-1,-1.20851256E-1,-3.9738774E-2,-9.522616E-2,-4.7247794E-2,-4.880845E-2,-7.064506E-2,-1.1081076E-1,-4.9687844E-2,-6.2508516E-2,-1.138125E-2,-5.730101E-2,-3.9862987E-2,-4.8001483E-2,-1.0284733E-2,-1.6586047E-2,1.321611E-2,-5.1061433E-2,-2.3220329E-2,-5.8610407E-3,-3.6594693E-2,5.3669512E-2,1.0636061E-2,-1.2697594E-2,1.8703448E-2,1.7829945E-2,5.9474852E-2,2.5255118E-2,1.221712E-3,4.7511708E-2,2.4500066E-2,3.6566805E-2,7.527845E-2,5.0613143E-2,-9.037244E-3,2.1360002E-1,7.507658E-2,3.717922E-2,5.5246513E-2,9.809647E-2,6.617427E-2,4.956832E-2,7.8565456E-2,8.720604E-2,1.0933035E-1,9.061053E-2,1.1855393E-1,1.0654324E-1,1.3552678E-1,1.1631482E-1,1.5268461E-1,4.2654227E-2,1.6010162E-1,3.8306713E-2,1.3360636E-1],"split_indices":[0,0,0,0,0,0,0,55,2,2,92,37,52,0,0,16,0,10,1,91,0,2,105,55,2,100,2,102,2,26,2,0,2,1,58,50,30,9,53,101,0,79,2,1,1,2,2,2,72,64,12,10,18,0,16,32,89,77,26,2,58,6,0,0,0,0,0,0,0,0,0,0,0,0,0,0,0,0,0,0,0,0,0,0,0,0,0,0,0,0,0,0,0,0,0,0,0,0,0,0,0,0,0,0,0,0,0,0,0,0,0,0,0,0,0,0,0,0,0,0,0,0,0,0,0],"split_type":[0,0,0,0,0,0,0,0,0,0,0,0,0,0,0,0,0,0,0,0,0,0,0,0,0,0,0,0,0,0,0,0,0,0,0,0,0,0,0,0,0,0,0,0,0,0,0,0,0,0,0,0,0,0,0,0,0,0,0,0,0,0,0,0,0,0,0,0,0,0,0,0,0,0,0,0,0,0,0,0,0,0,0,0,0,0,0,0,0,0,0,0,0,0,0,0,0,0,0,0,0,0,0,0,0,0,0,0,0,0,0,0,0,0,0,0,0,0,0,0,0,0,0,0,0],"sum_hessian":[9.711E3,5E3,4.711E3,2.283E3,2.717E3,3.315E3,1.396E3,1.208E3,1.075E3,1.549E3,1.168E3,1.768E3,1.547E3,1.018E3,3.78E2,5.78E2,6.3E2,1.37E2,9.38E2,1.12E3,4.29E2,4.98E2,6.7E2,8.84E2,8.84E2,3.77E2,1.17E3,6.78E2,3.4E2,3.01E2,7.7E1,3E0,5.75E2,3.05E2,3.25E2,7.3E1,6.4E1,8.4E2,9.8E1,1.39E2,9.81E2,1.58E2,2.71E2,2.08E2,2.9E2,1.28E2,5.42E2,2.58E2,6.26E2,8.05E2,7.9E1,1.4E1,3.63E2,1.037E3,1.33E2,1.77E2,5.01E2,2.08E2,1.32E2,1.4E2,1.61E2,1E1,6.7E1,2E0,1E0,1.53E2,4.22E2,2.91E2,1.4E1,1E1,3.15E2,7E1,3E0,4.9E1,1.5E1,3.21E2,5.19E2,8.2E1,1.6E1,2.6E1,1.13E2,5.51E2,4.3E2,1.06E2,5.2E1,2.28E2,4.3E1,9.7E1,1.11E2,2.38E2,5.2E1,5.4E1,7.4E1,3.6E2,1.82E2,1.89E2,6.9E1,1.13E2,5.13E2,2.42E2,5.63E2,2.5E1,5.4E1,7E0,7E0,1E0,3.62E2,4.69E2,5.68E2,7.1E1,6.2E1,8.8E1,8.9E1,3.8E2,1.21E2,1.39E2,6.9E1,4.1E1,9.1E1,8.6E1,5.4E1,1E0,1.6E2,1E0,9E0],"tree_param":{"num_deleted":"0","num_feature":"106","num_nodes":"125","size_leaf_vector":"1"}},{"base_weights":[1.0173843E-3,-5.98091E-1,4.663207E-1,-9.6124536E-1,-3.8724434E-1,1.9190104E-1,8.3295244E-1,-1.1640724E0,-8.41868E-1,-5.475031E-1,-2.5488234E-1,3.8072735E-2,3.15545E-1,6.731331E-1,1.2536995E0,-1.2324618E0,-1.3634373E-1,-8.6722004E-1,-1.6886763E-1,-4.6823305E-1,-6.855684E-1,-2.9973984E-1,-2.6407657E-2,-2.1775961E-1,8.3593875E-2,4.0539625E-1,2.2183867E-1,5.984601E-1,8.073942E-1,1.0819796E0,1.4930094E0,-1.2861528E0,-4.225632E-1,-9.706838E-2,-6.0933344E-2,-7.4636626E-1,-9.8227495E-1,-5.0952476E-1,-8.6497724E-2,1.6803724E0,-4.8436734E-1,-1.0267441E0,-6.4226377E-1,-3.293838E-1,-1.1704988E-2,1.5187569E-1,-1.4795002E-1,-2.3654328E-1,1.1634232E-1,-4.4918186E-3,2.018047E-1,3.693417E-1,6.3859713E-1,2.7467126E-1,9.300379E-2,5.5317885E-1,8.072193E-1,9.5337695E-1,7.085227E-1,9.775395E-1,1.2308344E0,1.4241319E0,1.8465647E-1,-1.1807823E-1,-1.706351E-1,-8.990306E-2,-2.2305407E-2,-1.2965939E-2,2.928524E-2,1.8180604E-1,-7.557707E-2,-9.912339E-2,1.6679798E-1,-1.4895725E-2,-6.239603E-2,1.037379E-2,-2.492646E-2,3.2487538E-1,8.39932E-3,-2.0652076E-2,-5.546239E-2,-1.04564086E-1,-6.9300653E-3,-6.6530876E-2,-9.207198E-3,-4.4050593E-2,-2.7353017E-2,4.636313E-2,-7.6200166E-3,1.7882718E-2,-3.9057773E-2,-2.5724275E-2,6.768508E-4,-4.9152497E-2,-1.1277359E-2,1.44878775E-2,-5.535131E-3,1.5576175E-2,4.450364E-2,3.063576E-2,5.3744145E-2,8.0088405E-3,6.788539E-2,5.5042513E-2,2.5037115E-2,-2.035697E-2,1.3302288E-2,5.0813925E-2,8.2944E-2,2.0292E-1,7.9028614E-2,1.1274434E-2,9.634995E-2,6.415223E-2,9.083382E-2,8.410475E-2,1.0821886E-1,2.3226976E-2,1.23590924E-1,1.511508E-1,1.2342888E-1],"categories":[],"categories_nodes":[],"categories_segments":[],"categories_sizes":[],"default_left":[0,0,0,0,0,0,0,0,0,0,0,0,0,0,0,0,0,0,0,0,0,0,0,0,0,0,0,0,0,0,0,0,0,0,0,0,0,0,0,0,0,0,0,0,0,0,0,0,0,0,0,0,0,0,0,0,0,0,0,0,0,0,0,0,0,0,0,0,0,0,0,0,0,0,0,0,0,0,0,0,0,0,0,0,0,0,0,0,0,0,0,0,0,0,0,0,0,0,0,0,0,0,0,0,0,0,0,0,0,0,0,0,0,0,0,0,0,0,0,0,0],"id":11,"left_children":[1,3,5,7,9,11,13,15,17,19,21,23,25,27,29,31,33,35,37,39,41,43,45,47,49,51,53,55,57,59,61,63,65,-1,67,69,71,73,75,77,79,81,83,85,87,89,91,93,-1,95,97,99,101,103,105,107,109,111,113,115,117,119,-1,-1,-1,-1,-1,-1,-1,-1,-1,-1,-1,-1,-1,-1,-1,-1,-1,-1,-1,-1,-1,-1,-1,-1,-1,-1,-1,-1,-1,-1,-1,-1,-1,-1,-1,-1,-1,-1,-1,-1,-1,-1,-1,-1,-1,-1,-1,-1,-1,-1,-1,-1,-1,-1,-1,-1,-1,-1,-1],"loss_changes":[2.707665E3,3.2474365E2,5.4988025E2,3.6767944E1,5.6878754E1,5.9482338E1,1.5650586E2,4.0246277E1,1.6659607E1,1.2976501E1,1.5098831E1,1.6264067E1,1.4509705E1,1.6540405E1,2.4808289E1,2.2894592E1,2.2688158E0,1.2462463E1,9.941435E-1,2.7680252E1,5.8561096E0,1.0515564E1,5.2880325E0,5.749318E0,1.2339934E1,7.1967773E0,5.766941E0,9.904388E0,8.042358E0,4.67334E0,3.8479004E0,2.0344788E1,3.126553E0,0E0,8.889713E-1,1.2636749E1,1.3121521E1,1.9588888E-1,9.857439E-1,1.4749517E1,1.491629E1,7.9597473E-1,4.934326E0,6.812248E0,3.5915287E0,1.5172186E0,2.4536347E0,6.5404005E0,0E0,5.173919E0,5.5974274E0,7.966629E0,2.576229E0,3.9028015E0,2.9823618E0,1.081427E1,2.3899307E0,1.9421234E0,4.2904053E0,2.3322449E0,4.8320007E-1,1.8998108E0,0E0,0E0,0E0,0E0,0E0,0E0,0E0,0E0,0E0,0E0,0E0,0E0,0E0,0E0,0E0,0E0,0E0,0E0,0E0,0E0,0E0,0E0,0E0,0E0,0E0,0E0,0E0,0E0,0E0,0E0,0E0,0E0,0E0,0E0,0E0,0E0,0E0,0E0,0E0,0E0,0E0,0E0,0E0,0E0,0E0,0E0,0E0,0E0,0E0,0E0,0E0,0E0,0E0,0E0,0E0,0E0,0E0,0E0,0E0],"parents":[2147483647,0,0,1,1,2,2,3,3,4,4,5,5,6,6,7,7,8,8,9,9,10,10,11,11,12,12,13,13,14,14,15,15,16,16,17,17,18,18,19,19,20,20,21,21,22,22,23,23,24,24,25,25,26,26,27,27,28,28,29,29,30,30,31,31,32,32,34,34,35,35,36,36,37,37,38,38,39,39,40,40,41,41,42,42,43,43,44,44,45,45,46,46,47,47,49,49,50,50,51,51,52,52,53,53,54,54,55,55,56,56,57,57,58,58,59,59,60,60,61,61],"right_children":[2,4,6,8,10,12,14,16,18,20,22,24,26,28,30,32,34,36,38,40,42,44,46,48,50,52,54,56,58,60,62,64,66,-1,68,70,72,74,76,78,80,82,84,86,88,90,92,94,-1,96,98,100,102,104,106,108,110,112,114,116,118,120,-1,-1,-1,-1,-1,-1,-1,-1,-1,-1,-1,-1,-1,-1,-1,-1,-1,-1,-1,-1,-1,-1,-1,-1,-1,-1,-1,-1,-1,-1,-1,-1,-1,-1,-1,-1,-1,-1,-1,-1,-1,-1,-1,-1,-1,-1,-1,-1,-1,-1,-1,-1,-1,-1,-1,-1,-1,-1,-1],"split_conditions":[5.855072E0,3.6888795E0,7.663408E0,2.4849067E0,4.762174E0,6.675823E0,9.296243E0,1.9459101E0,8.066208E0,-4.5949638E-2,7.704361E0,6.329721E0,7.207967E-2,8.550628E0,1.02388525E1,7.9956436E0,-3.3522705E-3,-6.330556E-2,1.5102042E-1,5.671987E-2,5.908083E0,1.1750485E0,2.636001E-2,4.582026E-1,3.060813E-1,7.795235E0,-1.8401676E-1,1.5710503E-1,-3.1028637E-1,7.2997975E0,1.1424488E1,7.795235E0,-2.0382155E-1,-9.706838E-2,1.9444668E-1,2.1454526E-1,8.267853E-1,8.580526E-1,1.0222942E-1,1.2727079E-1,-2.0400833E-2,-1.2768763E-1,9.080829E-2,5.164786E0,1.0377127E0,-7.560873E-4,2.6026532E-1,2.4849067E0,1.1634232E-1,3.1780539E0,7.8204393E0,2.4796611E-1,-8.152678E-2,1.6333768E-1,1.2741934E-2,7.795235E0,6.868239E-2,4.521734E-3,7.404279E0,1.24680504E-1,1.0672287E-2,9.568729E-3,1.8465647E-1,-1.1807823E-1,-1.706351E-1,-8.990306E-2,-2.2305407E-2,-1.2965939E-2,2.928524E-2,1.8180604E-1,-7.557707E-2,-9.912339E-2,1.6679798E-1,-1.4895725E-2,-6.239603E-2,1.037379E-2,-2.492646E-2,3.2487538E-1,8.39932E-3,-2.0652076E-2,-5.546239E-2,-1.04564086E-1,-6.9300653E-3,-6.6530876E-2,-9.207198E-3,-4.4050593E-2,-2.7353017E-2,4.636313E-2,-7.6200166E-3,1.7882718E-2,-3.9057773E-2,-2.5724275E-2,6.768508E-4,-4.9152497E-2,-1.1277359E-2,1.44878775E-2,-5.535131E-3,1.5576175E-2,4.450364E-2,3.063576E-2,5.3744145E-2,8.0088405E-3,6.788539E-2,5.5042513E-2,2.5037115E-2,-2.035697E-2,1.3302288E-2,5.0813925E-2,8.2944E-2,2.0292E-1,7.9028614E-2,1.1274434E-2,9.634995E-2,6.415223E-2,9.083382E-2,8.410475E-2,1.0821886E-1,2.3226976E-2,1.23590924E-1,1.511508E-1,1.2342888E-1],"split_indices":[0,0,0,0,0,0,0,1,2,19,2,2,67,0,0,2,18,19,37,24,2,100,67,12,37,2,90,89,103,2,0,2,66,0,24,7,7,13,99,50,91,8,89,0,94,63,79,1,0,1,2,55,43,23,99,2,69,50,2,42,22,10,0,0,0,0,0,0,0,0,0,0,0,0,0,0,0,0,0,0,0,0,0,0,0,0,0,0,0,0,0,0,0,0,0,0,0,0,0,0,0,0,0,0,0,0,0,0,0,0,0,0,0,0,0,0,0,0,0,0,0],"split_type":[0,0,0,0,0,0,0,0,0,0,0,0,0,0,0,0,0,0,0,0,0,0,0,0,0,0,0,0,0,0,0,0,0,0,0,0,0,0,0,0,0,0,0,0,0,0,0,0,0,0,0,0,0,0,0,0,0,0,0,0,0,0,0,0,0,0,0,0,0,0,0,0,0,0,0,0,0,0,0,0,0,0,0,0,0,0,0,0,0,0,0,0,0,0,0,0,0,0,0,0,0,0,0,0,0,0,0,0,0,0,0,0,0,0,0,0,0,0,0,0,0],"sum_hessian":[9.711E3,4.245E3,5.466E3,1.558E3,2.687E3,3.127E3,2.339E3,5.74E2,9.84E2,1.214E3,1.473E3,1.394E3,1.733E3,1.697E3,6.42E2,5.38E2,3.6E1,9.48E2,3.6E1,7.74E2,4.4E2,1.231E3,2.42E2,2.1E2,1.184E3,8.83E2,8.5E2,1.094E3,6.03E2,3.77E2,2.65E2,5.04E2,3.4E1,2E0,3.4E1,4.66E2,4.82E2,6E0,3E1,5E0,7.69E2,4.7E1,3.93E2,1.116E3,1.15E2,9.8E1,1.44E2,2.08E2,2E0,6.79E2,5.05E2,7.67E2,1.16E2,6.02E2,2.48E2,9.02E2,1.92E2,2.4E2,3.63E2,2.26E2,1.51E2,2.26E2,3.9E1,4.06E2,9.8E1,9E0,2.5E1,2.9E1,5E0,1E0,4.65E2,4.81E2,1E0,2E0,4E0,1.4E1,1.6E1,2E0,3E0,1.56E2,6.13E2,4.6E1,1E0,3.77E2,1.6E1,3.71E2,7.45E2,1.3E1,1.02E2,9.4E1,4E0,8.4E1,6E1,6.7E1,1.41E2,1.72E2,5.07E2,4.26E2,7.9E1,5.6E2,2.07E2,8E0,1.08E2,4.7E1,5.55E2,2.9E1,2.19E2,7.78E2,1.24E2,1E0,1.91E2,3E0,2.37E2,2.75E2,8.8E1,1.02E2,1.24E2,1E0,1.5E2,1.5E2,7.6E1],"tree_param":{"num_deleted":"0","num_feature":"106","num_nodes":"121","size_leaf_vector":"1"}},{"base_weights":[1.062588E-3,-4.6816295E-1,4.8371395E-1,-7.843392E-1,-2.2693229E-1,2.9761782E-1,8.7302524E-1,-1.0114521E0,-6.589891E-1,-3.596769E-1,-9.402534E-2,1.7427899E-1,4.3906814E-1,7.4363977E-1,1.2701439E0,-1.0524763E0,-1.0933716E-1,-5.641952E-1,-7.843175E-1,-4.4757628E-1,-2.4961336E-1,-3.3649784E-1,-4.5741163E-2,4.6215173E-2,2.373335E-1,3.422164E-1,5.2046466E-1,6.652158E-1,8.836591E-1,1.1943212E0,1.54743E0,-1.0954614E0,-3.6424077E-1,-2.5092533E-1,1.108549E-1,-5.765021E-1,2.8441608E-1,-7.910297E-1,1.584581E-1,-4.7947022E-1,-1.7550443E-1,-2.874219E-1,5.3180326E-2,-5.2934426E-1,-2.3728158E-1,-1.3611302E-1,6.0535155E-2,2.1721855E-1,-9.57626E-3,1.8614079E-1,3.86305E-1,6.099535E-1,2.9806754E-1,4.8462516E-1,7.672926E-1,4.8040733E-1,7.301648E-1,7.8999424E-1,1.0151017E0,1.3644941E0,1.1007104E0,9.9997215E-2,1.6043453E-1,-1.0091319E-1,-1.510827E-1,-7.8056805E-2,-1.8372526E-2,-8.677742E-3,-3.9226186E-2,1.125582E-3,4.7229957E-2,-6.7941226E-2,-4.1491915E-2,1.8735573E-2,-8.0142014E-2,-5.805328E-2,-4.16454E-2,-2.258467E-2,1.9762802E-1,-2.6078824E-2,-6.4221665E-2,1.7824763E-2,-2.4713134E-2,-5.466653E-2,4.021878E-2,7.685914E-2,-2.4880407E-2,-1.8845245E-2,2.0444642E-3,8.707361E-2,4.3509076E-3,1.4625928E-2,5.254515E-2,-3.7532866E-3,2.5158009E-2,3.6375638E-2,1.2209673E-2,5.0764438E-2,2.5293043E-2,6.8361916E-2,2.4866438E-2,1.3379875E-2,3.4451082E-2,4.259824E-2,5.9380855E-2,8.439826E-2,5.1066097E-2,4.1514147E-2,7.008861E-2,6.834987E-2,8.639477E-2,7.3293574E-2,9.960253E-2,7.4269034E-2,1.0505772E-1,1.198108E-1,1.5301843E-1,7.031408E-2,1.1223471E-1],"categories":[],"categories_nodes":[],"categories_segments":[],"categories_sizes":[],"default_left":[0,0,0,0,0,0,0,0,0,0,0,0,0,0,0,0,0,0,0,0,0,0,0,0,0,0,0,0,0,0,0,0,0,0,0,0,0,0,0,0,0,0,0,0,0,0,0,0,0,0,0,0,0,0,0,0,0,0,0,0,0,0,0,0,0,0,0,0,0,0,0,0,0,0,0,0,0,0,0,0,0,0,0,0,0,0,0,0,0,0,0,0,0,0,0,0,0,0,0,0,0,0,0,0,0,0,0,0,0,0,0,0,0,0,0,0,0,0,0],"id":12,"left_children":[1,3,5,7,9,11,13,15,17,19,21,23,25,27,29,31,33,35,37,39,41,43,45,47,49,51,53,55,57,59,61,63,65,67,69,71,-1,73,-1,75,77,79,81,83,85,87,89,91,93,95,97,99,101,103,105,107,109,111,113,115,117,-1,-1,-1,-1,-1,-1,-1,-1,-1,-1,-1,-1,-1,-1,-1,-1,-1,-1,-1,-1,-1,-1,-1,-1,-1,-1,-1,-1,-1,-1,-1,-1,-1,-1,-1,-1,-1,-1,-1,-1,-1,-1,-1,-1,-1,-1,-1,-1,-1,-1,-1,-1,-1,-1,-1,-1,-1,-1],"loss_changes":[2.1997258E3,3.7545862E2,3.466277E2,6.0000122E1,4.927748E1,5.646698E1,7.859387E1,2.7863342E1,1.5904846E1,1.3413254E1,1.6351814E1,1.3983013E1,1.1717926E1,1.2259827E1,6.120178E0,2.0990112E1,1.0878204E0,3.465126E1,1.0634735E1,6.649536E0,7.1475105E0,4.313366E0,1.1216561E1,5.4687996E0,8.782173E0,7.9978333E0,6.864319E0,8.6996155E0,4.33197E0,3.30896E0,8.260956E-1,2.2859009E1,3.1633449E0,4.5316243E-1,4.9867767E-1,1.2771484E1,0E0,6.137909E0,0E0,4.1780396E0,9.437369E0,5.067539E0,2.6731923E0,1.4783993E0,1.9877052E0,5.1743565E0,7.3697863E0,3.0070972E0,3.1707952E0,9.806526E0,4.6619415E0,2.411625E0,4.5008965E0,4.3378754E0,1.5764809E0,2.5725899E0,2.8806763E0,2.1854248E0,8.626251E-1,1.0062408E0,9.312439E-1,0E0,0E0,0E0,0E0,0E0,0E0,0E0,0E0,0E0,0E0,0E0,0E0,0E0,0E0,0E0,0E0,0E0,0E0,0E0,0E0,0E0,0E0,0E0,0E0,0E0,0E0,0E0,0E0,0E0,0E0,0E0,0E0,0E0,0E0,0E0,0E0,0E0,0E0,0E0,0E0,0E0,0E0,0E0,0E0,0E0,0E0,0E0,0E0,0E0,0E0,0E0,0E0,0E0,0E0,0E0,0E0,0E0,0E0],"parents":[2147483647,0,0,1,1,2,2,3,3,4,4,5,5,6,6,7,7,8,8,9,9,10,10,11,11,12,12,13,13,14,14,15,15,16,16,17,17,18,18,19,19,20,20,21,21,22,22,23,23,24,24,25,25,26,26,27,27,28,28,29,29,30,30,31,31,32,32,33,33,34,34,35,35,37,37,39,39,40,40,41,41,42,42,43,43,44,44,45,45,46,46,47,47,48,48,49,49,50,50,51,51,52,52,53,53,54,54,55,55,56,56,57,57,58,58,59,59,60,60],"right_children":[2,4,6,8,10,12,14,16,18,20,22,24,26,28,30,32,34,36,38,40,42,44,46,48,50,52,54,56,58,60,62,64,66,68,70,72,-1,74,-1,76,78,80,82,84,86,88,90,92,94,96,98,100,102,104,106,108,110,112,114,116,118,-1,-1,-1,-1,-1,-1,-1,-1,-1,-1,-1,-1,-1,-1,-1,-1,-1,-1,-1,-1,-1,-1,-1,-1,-1,-1,-1,-1,-1,-1,-1,-1,-1,-1,-1,-1,-1,-1,-1,-1,-1,-1,-1,-1,-1,-1,-1,-1,-1,-1,-1,-1,-1,-1,-1,-1,-1,-1],"split_conditions":[6.289716E0,4.2195077E0,8.27614E0,2.7725887E0,5.3565865E0,7.215975E0,9.89968E0,2.3025851E0,-4.9870897E-2,7.345365E0,6.349139E0,3.131495E-1,-1.0536201E-1,9.071538E0,1.11242E1,7.9956436E0,6.745407E-1,-4.630083E-1,8.267853E-1,1.0696801E-1,5.273829E-1,2.1972246E0,-7.370724E-2,1.2286133E-1,7.5766096E0,-2.9935765E-1,7.799753E0,5.432108E-1,8.831638E-2,-1.7202675E-1,5.4764633E0,7.795235E0,-2.0382155E-1,2.8815717E-1,4.6656873E-2,3.7128457E-1,2.8441608E-1,-2.1727411E-1,1.584581E-1,4.691348E0,-1.1556147E-1,2.9674485E-1,4.309376E-1,3.1E1,-2.2280082E-1,4.235075E-1,-1.4583723E-1,7.794411E0,-1.3218485E-1,-1.0228232E-1,5.6480706E-2,1.9554089E-1,2.1500489E-1,4.4208714E-1,9.153774E-2,7.358194E0,9.821768E-2,7.4854918E0,6.6541524E0,7.355002E0,6.126869E0,9.9997215E-2,1.6043453E-1,-1.0091319E-1,-1.510827E-1,-7.8056805E-2,-1.8372526E-2,-8.677742E-3,-3.9226186E-2,1.125582E-3,4.7229957E-2,-6.7941226E-2,-4.1491915E-2,1.8735573E-2,-8.0142014E-2,-5.805328E-2,-4.16454E-2,-2.258467E-2,1.9762802E-1,-2.6078824E-2,-6.4221665E-2,1.7824763E-2,-2.4713134E-2,-5.466653E-2,4.021878E-2,7.685914E-2,-2.4880407E-2,-1.8845245E-2,2.0444642E-3,8.707361E-2,4.3509076E-3,1.4625928E-2,5.254515E-2,-3.7532866E-3,2.5158009E-2,3.6375638E-2,1.2209673E-2,5.0764438E-2,2.5293043E-2,6.8361916E-2,2.4866438E-2,1.3379875E-2,3.4451082E-2,4.259824E-2,5.9380855E-2,8.439826E-2,5.1066097E-2,4.1514147E-2,7.008861E-2,6.834987E-2,8.639477E-2,7.3293574E-2,9.960253E-2,7.4269034E-2,1.0505772E-1,1.198108E-1,1.5301843E-1,7.031408E-2,1.1223471E-1],"split_indices":[0,0,0,0,0,0,0,1,19,2,2,92,53,0,0,2,102,17,7,77,28,1,53,55,2,34,2,102,77,52,2,2,66,56,10,28,0,16,0,0,105,55,12,5,10,101,84,2,27,64,58,50,49,96,55,2,89,2,2,2,1,0,0,0,0,0,0,0,0,0,0,0,0,0,0,0,0,0,0,0,0,0,0,0,0,0,0,0,0,0,0,0,0,0,0,0,0,0,0,0,0,0,0,0,0,0,0,0,0,0,0,0,0,0,0,0,0,0,0],"split_type":[0,0,0,0,0,0,0,0,0,0,0,0,0,0,0,0,0,0,0,0,0,0,0,0,0,0,0,0,0,0,0,0,0,0,0,0,0,0,0,0,0,0,0,0,0,0,0,0,0,0,0,0,0,0,0,0,0,0,0,0,0,0,0,0,0,0,0,0,0,0,0,0,0,0,0,0,0,0,0,0,0,0,0,0,0,0,0,0,0,0,0,0,0,0,0,0,0,0,0,0,0,0,0,0,0,0,0,0,0,0,0,0,0,0,0,0,0,0,0],"sum_hessian":[9.711E3,4.924E3,4.787E3,2.13E3,2.794E3,3.24E3,1.547E3,7.55E2,1.375E3,1.397E3,1.397E3,1.732E3,1.508E3,1.169E3,3.78E2,7.22E2,3.3E1,7.86E2,5.89E2,7.75E2,6.22E2,2.31E2,1.166E3,5.72E2,1.16E3,6.91E2,8.17E2,7.53E2,4.16E2,3.01E2,7.7E1,6.79E2,4.3E1,2E1,1.3E1,7.84E2,2E0,5.88E2,1E0,6.93E2,8.2E1,5.53E2,6.9E1,7.7E1,1.54E2,6.3E2,5.36E2,1.4E2,4.32E2,8.65E2,2.95E2,9.6E1,5.95E2,7.16E2,1.01E2,1.98E2,5.55E2,2.47E2,1.69E2,1.02E2,1.99E2,9E0,6.8E1,5.65E2,1.14E2,1.2E1,3.1E1,1E1,1E1,1.1E1,2E0,4.77E2,3.07E2,6E0,5.82E2,2.63E2,4.3E2,8.1E1,1E0,5.16E2,3.7E1,4.9E1,2E1,7.6E1,1E0,1E0,1.53E2,4.72E2,1.58E2,1E1,5.26E2,1.15E2,2.5E1,3.91E2,4.1E1,2.28E2,6.37E2,1.53E2,1.42E2,7.9E1,1.7E1,1.32E2,4.63E2,4.69E2,2.47E2,7.6E1,2.5E1,1.55E2,4.3E1,4.16E2,1.39E2,1.97E2,5E1,2.2E1,1.47E2,5.5E1,4.7E1,1.2E1,1.87E2],"tree_param":{"num_deleted":"0","num_feature":"106","num_nodes":"119","size_leaf_vector":"1"}},{"base_weights":[1.1561444E-3,-4.669492E-1,3.943325E-1,-7.947961E-1,-3.0175608E-1,2.1033606E-1,7.4626696E-1,-6.8058187E-1,-9.334675E-1,-4.262394E-1,-1.6967833E-1,7.489412E-2,3.2902712E-1,6.3343245E-1,1.1222159E0,-9.694566E-1,-5.645607E-1,-1.1061659E0,-8.082921E-1,-5.8330756E-1,-3.767278E-1,-2.300595E-1,-2.151076E-2,1.6194129E-1,-1.8936312E-2,1.4375798E-1,3.690599E-1,5.5704904E-1,7.575674E-1,1.0134902E0,1.3031969E0,8.881502E-1,-1.05674E0,6.0215328E-2,-5.925101E-1,-1.153585E0,-1.295779E-1,-8.2868314E-1,6.382461E-1,-6.4291996E-1,-4.2505127E-1,-3.19237E-1,-5.413767E-1,-2.7831003E-1,-3.2552127E-2,-6.362078E-2,2.0686215E-1,1.3029522E-1,3.58606E-1,-5.191578E-2,2.747789E-1,-1.7637374E-1,2.24459E-1,3.0406407E-1,4.5737338E-1,4.9736464E-1,6.9098234E-1,6.194193E-1,8.451543E-1,1.226184E-1,9.545328E-1,1.1523196E0,1.4299387E-1,-9.189119E-2,3.240407E-1,-1.5506054E-1,-8.612069E-2,4.919214E-2,-6.599667E-3,-4.2704605E-2,-7.381514E-2,-9.8753326E-2,-1.2650569E-1,-1.9188171E-2,7.415199E-3,6.8759635E-2,-8.463604E-2,-6.2720954E-2,2.1127717E-1,-7.33602E-2,-4.8460595E-2,-3.064315E-2,-6.749561E-2,1.787534E-2,-3.3436097E-2,-6.4651065E-2,-1.6201971E-2,-3.3908375E-2,-1.8967483E-2,4.0454242E-2,-9.130335E-3,4.4978205E-3,-1.47342505E-2,-1.9423714E-2,2.3634797E-2,6.6700056E-3,2.831479E-2,9.0047285E-2,2.3633717E-2,4.1308464E-3,-1.1520216E-2,2.0897286E-2,7.079433E-2,-3.1717222E-2,4.953836E-2,-2.1845102E-2,2.5201766E-2,2.4219222E-2,4.1279566E-2,4.39865E-2,9.094535E-2,6.100737E-2,3.877878E-2,6.086392E-2,7.947119E-2,5.7017323E-2,8.4795184E-2,7.207754E-2,9.2820846E-2,5.096499E-2,9.717461E-2,9.373128E-2,1.2824991E-1],"categories":[],"categories_nodes":[],"categories_segments":[],"categories_sizes":[],"default_left":[0,0,0,0,0,0,0,0,0,0,0,0,0,0,0,0,0,0,0,0,0,0,0,0,0,0,0,0,0,0,0,0,0,0,0,0,0,0,0,0,0,0,0,0,0,0,0,0,0,0,0,0,0,0,0,0,0,0,0,0,0,0,0,0,0,0,0,0,0,0,0,0,0,0,0,0,0,0,0,0,0,0,0,0,0,0,0,0,0,0,0,0,0,0,0,0,0,0,0,0,0,0,0,0,0,0,0,0,0,0,0,0,0,0,0,0,0,0,0,0,0,0,0],"id":13,"left_children":[1,3,5,7,9,11,13,15,17,19,21,23,25,27,29,31,33,35,37,39,41,43,45,47,49,51,53,55,57,59,61,63,65,67,69,71,73,75,77,79,81,83,85,87,89,91,93,95,97,99,101,103,105,107,109,111,113,115,117,-1,119,121,-1,-1,-1,-1,-1,-1,-1,-1,-1,-1,-1,-1,-1,-1,-1,-1,-1,-1,-1,-1,-1,-1,-1,-1,-1,-1,-1,-1,-1,-1,-1,-1,-1,-1,-1,-1,-1,-1,-1,-1,-1,-1,-1,-1,-1,-1,-1,-1,-1,-1,-1,-1,-1,-1,-1,-1,-1,-1,-1,-1,-1],"loss_changes":[1.7876577E3,2.3989703E2,3.4168298E2,2.288446E1,4.8430054E1,5.5726044E1,7.6154236E1,2.6868439E1,1.3546448E1,1.1585266E1,1.28154335E1,1.32428665E1,1.3653259E1,1.2814636E1,6.8846436E0,3.871678E1,1.0268463E1,1.2724426E1,1.2061996E1,3.1418533E0,1.07790985E1,9.6923065E0,4.013745E0,5.187378E0,7.5794773E0,8.5651245E0,8.580017E0,6.594879E0,5.87735E0,2.1526184E0,1.2779846E0,4.9735065E1,2.0199066E1,1.449114E0,1.32039795E1,3.6558838E0,1.9193247E-1,1.0928192E1,1.252083E1,3.3914642E0,2.816822E0,6.5369415E0,1.1780464E1,4.342003E0,5.198583E0,3.207045E0,8.146455E-1,7.038336E0,7.472584E0,4.152336E0,2.1039405E0,6.494142E0,3.2774363E0,5.806694E0,4.681534E0,7.223007E0,1.7798004E0,1.8686752E0,2.6469727E0,0E0,1.1282196E0,8.9711E-1,0E0,0E0,0E0,0E0,0E0,0E0,0E0,0E0,0E0,0E0,0E0,0E0,0E0,0E0,0E0,0E0,0E0,0E0,0E0,0E0,0E0,0E0,0E0,0E0,0E0,0E0,0E0,0E0,0E0,0E0,0E0,0E0,0E0,0E0,0E0,0E0,0E0,0E0,0E0,0E0,0E0,0E0,0E0,0E0,0E0,0E0,0E0,0E0,0E0,0E0,0E0,0E0,0E0,0E0,0E0,0E0,0E0,0E0,0E0,0E0,0E0],"parents":[2147483647,0,0,1,1,2,2,3,3,4,4,5,5,6,6,7,7,8,8,9,9,10,10,11,11,12,12,13,13,14,14,15,15,16,16,17,17,18,18,19,19,20,20,21,21,22,22,23,23,24,24,25,25,26,26,27,27,28,28,29,29,30,30,31,31,32,32,33,33,34,34,35,35,36,36,37,37,38,38,39,39,40,40,41,41,42,42,43,43,44,44,45,45,46,46,47,47,48,48,49,49,50,50,51,51,52,52,53,53,54,54,55,55,56,56,57,57,58,58,60,60,61,61],"right_children":[2,4,6,8,10,12,14,16,18,20,22,24,26,28,30,32,34,36,38,40,42,44,46,48,50,52,54,56,58,60,62,64,66,68,70,72,74,76,78,80,82,84,86,88,90,92,94,96,98,100,102,104,106,108,110,112,114,116,118,-1,120,122,-1,-1,-1,-1,-1,-1,-1,-1,-1,-1,-1,-1,-1,-1,-1,-1,-1,-1,-1,-1,-1,-1,-1,-1,-1,-1,-1,-1,-1,-1,-1,-1,-1,-1,-1,-1,-1,-1,-1,-1,-1,-1,-1,-1,-1,-1,-1,-1,-1,-1,-1,-1,-1,-1,-1,-1,-1,-1,-1,-1,-1],"split_conditions":[5.986452E0,3.6109178E0,8.04655E0,1.6724516E-1,4.955827E0,6.8855095E0,9.778378E0,6.673298E0,2.4849067E0,6.590301E0,7.462789E0,1.3539211E-2,6.6253924E0,8.878776E0,1.069989E1,1.04295135E-1,6.931472E-1,2.1972246E0,1.2472645E-2,4.574711E0,2.4849067E0,5.1879823E-1,8.091627E0,5.72559E-1,7.787797E0,3.3672957E0,7.4899707E0,7.4145727E0,8.343022E-3,-3.4117952E-1,7.3505163E0,2.020949E-1,2.3025851E0,1.9892317E-1,-3.5025853E-1,-1.8109451E-1,-4.4783134E-2,1.1457248E-1,-6.387761E-2,-1.5870668E-1,-3.0285373E-1,1.4649656E-1,7.7480288E0,5.587249E0,1.1771077E-1,-6.09368E-1,2.6499203E-1,7.5766096E0,6.7214255E0,-9.173129E-2,-4.606273E-2,1.4807472E-1,2.9032385E-1,-7.6393984E-2,8.066208E0,-6.134514E-2,-5.1908523E-2,7.5432734E0,6.9985094E0,1.226184E-1,5.398163E0,3.9530838E-1,1.4299387E-1,-9.189119E-2,3.240407E-1,-1.5506054E-1,-8.612069E-2,4.919214E-2,-6.599667E-3,-4.2704605E-2,-7.381514E-2,-9.8753326E-2,-1.2650569E-1,-1.9188171E-2,7.415199E-3,6.8759635E-2,-8.463604E-2,-6.2720954E-2,2.1127717E-1,-7.33602E-2,-4.8460595E-2,-3.064315E-2,-6.749561E-2,1.787534E-2,-3.3436097E-2,-6.4651065E-2,-1.6201971E-2,-3.3908375E-2,-1.8967483E-2,4.0454242E-2,-9.130335E-3,4.4978205E-3,-1.47342505E-2,-1.9423714E-2,2.3634797E-2,6.6700056E-3,2.831479E-2,9.0047285E-2,2.3633717E-2,4.1308464E-3,-1.1520216E-2,2.0897286E-2,7.079433E-2,-3.1717222E-2,4.953836E-2,-2.1845102E-2,2.5201766E-2,2.4219222E-2,4.1279566E-2,4.39865E-2,9.094535E-2,6.100737E-2,3.877878E-2,6.086392E-2,7.947119E-2,5.7017323E-2,8.4795184E-2,7.207754E-2,9.2820846E-2,5.096499E-2,9.717461E-2,9.373128E-2,1.2824991E-1],"split_indices":[0,0,0,55,0,0,0,2,0,2,2,10,2,0,0,76,0,1,105,0,1,68,2,96,2,1,0,2,26,105,2,41,0,75,8,72,34,28,18,105,27,23,2,0,81,86,68,2,2,9,83,36,7,30,2,52,53,2,2,0,2,82,0,0,0,0,0,0,0,0,0,0,0,0,0,0,0,0,0,0,0,0,0,0,0,0,0,0,0,0,0,0,0,0,0,0,0,0,0,0,0,0,0,0,0,0,0,0,0,0,0,0,0,0,0,0,0,0,0,0,0,0,0],"split_type":[0,0,0,0,0,0,0,0,0,0,0,0,0,0,0,0,0,0,0,0,0,0,0,0,0,0,0,0,0,0,0,0,0,0,0,0,0,0,0,0,0,0,0,0,0,0,0,0,0,0,0,0,0,0,0,0,0,0,0,0,0,0,0,0,0,0,0,0,0,0,0,0,0,0,0,0,0,0,0,0,0,0,0,0,0,0,0,0,0,0,0,0,0,0,0,0,0,0,0,0,0,0,0,0,0,0,0,0,0,0,0,0,0,0,0,0,0,0,0,0,0,0,0],"sum_hessian":[9.711E3,4.433E3,5.278E3,1.484E3,2.949E3,3.467E3,1.811E3,8.17E2,6.67E2,1.517E3,1.432E3,1.62E3,1.847E3,1.395E3,4.16E2,2.32E2,5.85E2,2.77E2,3.9E2,3.61E2,1.156E3,1.017E3,4.15E2,8.4E2,7.8E2,3.29E2,1.518E3,8.67E2,5.28E2,2.64E2,1.52E2,1E1,2.22E2,2.5E1,5.6E2,2.64E2,1.3E1,3.85E2,5E0,2.6E2,1.01E2,8.59E2,2.97E2,8.17E2,2E2,3.51E2,6.4E1,7.25E2,1.15E2,7.02E2,7.8E1,6.6E1,2.63E2,8.77E2,6.41E2,6.03E2,2.64E2,2.08E2,3.2E2,5.3E1,2.11E2,7.4E1,7.8E1,6E0,4E0,6.1E1,1.61E2,5E0,2E1,2.64E2,2.96E2,1.1E2,1.54E2,1E1,3E0,4E0,3.81E2,3E0,2E0,1.63E2,9.7E1,7E1,3.1E1,2.5E1,8.34E2,2.32E2,6.5E1,4.83E2,3.34E2,2.3E1,1.77E2,1.53E2,1.98E2,4E0,6E1,5.13E2,2.12E2,2E1,9.5E1,2.84E2,4.18E2,6.9E1,9E0,5.5E1,1.1E1,1.5E1,2.48E2,5.61E2,3.16E2,6.19E2,2.2E1,2.95E2,3.08E2,1.51E2,1.13E2,1.74E2,3.4E1,1.32E2,1.88E2,9E0,2.02E2,